{"learner":{"attributes":{"scikit_learn":"{\"_estimator_type\": \"classifier\"}"},"feature_names":["GGGTTTAAAACGTCGTGAGACAGTTTGGTCCCTATCTGCAGTGGGCGTTGGAAGTTTGACG","CATCTGCCTGGCAAACGCTTCCCCGTCGCCCTCGAA","AACATCAGGAAAACGGCACATTCCACGCCGT","TACAAGCCTTGTGGCTTGTTGCCCTCTCTCTAGC","AAAGGCGTTTGCGTTGCGAGGAGTTCATATC","TCATCTCGTATGCCGTCTTCTGCTTGAAAAA","TTTCAGACGGCATCTGCCTGGCAAACGCTTCCC","ACCGTAACCGGCAATGCGGATATTACGGTCA","ACCGTGTAGCCCTGCTGTTTGAACGCCAACCCGTTTTTGTGCGCCCAACGGCTCACAAGGT","CGCGCGACAAAGCCGACGCCGACAACGACGC","CCCCACCGAAATCAAAGGCAAATATGTTCAAAGCG","CCGTTCCCTTTGGGCCGGGGCGGGGCAACGC","CCCAAAGGGAACGATTCCCTAAGGTGATGGA","AACTTTCTGAACATATTTGCCTTTGATTTCG","GTTTACGCCGTCTGATTTCATTTGGGCGGTGACGAC","CGGCATCCGATATGAACTCCTCGCAACGCAAA","CTTCCCCAAAAATATCGACACACTCGAAACTCTCCTGACCGACAACCGCATCTGGAAACAG","AAAGAGTTGGAAAGAAAGAATAATAAAACTCCTGGCG","CTTGGATATGTCCAATCCTACAGTGTTACGCA","AAAAACCAAGAAGTTCGCTTAAATAATATAG","CAAATCAATACGCTGACTAAAGGTTGCAATTTA","GGCGGGCAGCACATCGGAAATTTTGGCGCGGAATATCTGGAACGGCGC","TGGGAATCCCGACTTTTTGTATTCCTGACTAACGCAATCCGACCAAAAAT","TCCCCAGTTGTGGTAGCGGTAGCCGGCGTCC","AGGGTTGGTTGACGCTGCCGAAACCGAAGCACAAAACGAAAAATTCTACCGCGACTACCAA","GACAAGCCGAGAGAAGAAACGGCGTGGAATGT","TAATGATTGGGCAAAATATTTTTCTACGTTATAAGCGCAAATCAATACGCTGACTAAAGG","CTTGCGGGCGGCATTGTTTCCCGCCGTACCGCA","TAAAAGCAACGGTACGGTAAACGACGGCACGCTTGACGGAAACCTGTATTGG","CTCATCGGTTTTGAGTTTAATAATGCGGACAA","TAATCAAAACCTCGTCTATACGACAGAAGACC","GTCAAACCTGCCGACCCTTCACAGCATTCGCGC","GCCGTCTTATTATAGGGAAGGCGTTCCCCGGAGCAC","AGGCATTTGACCCGCCAACCCGACCGCCGTG","TGCTATTTCAGTCAATCGTACCGATTCCGGC","ATGCGCGTCGCCTACGGACACGTCAGACACG","ACCGTAACGAACCAAACAAAAACCAAGAAGTTCGCTTAAATA","CACTGTAGGATTGGACATATCCAAGCTGACA","GGAAGGCGTTCCCCGGAGCACCCAGGAGGCCATGGC","CAGCTACGGTTTATCCTGACGGATATCCGCAAA","TTATTATAGGGAAGGCGTTCCCCGGAGCACCCAGGAGGC","CCCGCGTGTTTGCGCCTTGTTTTCCCGCCGGCA","AGGCGTTTGCGTTGCGAGGAGTTCATCTCGTATGCCGTCTTCTGC","AAGTCGGGAAATGCCCTTATCCGGTATGCGACCA","AAACCTGCCGACCCTTCACAGCATTCGCGCCCGAA","TTGCCGTTCCGCAGTTGGGCGGCAGCATACA","GGAAAGGCGTTTGCGTTGCGAGGAGTTCATCTCG","CATTTCCGCTTCAGACGGCATCCGATATGAAC","CGTTATTTGCCGCACAAGCGGCTCAAAGCCGTGCTGACCCAAG","CCTGCGGTACGGCGGGAAACAATGCCGCCCG","AAAAGAGCCAAAAAGGTATCACCCCCCCCCC","ATCACCTTAGGGAATCGTTCCCTTTGGGCCGG","CCTATAATAAGACGGCAATACGAATATATGGTGCGC","GGGAACGCCTTCCCTATAATAAGACGGCAATACGAATATATG","GACGGCACGCTTGACGGAAACCTGTATTGGGCGGGC","GCATGGGCAAGCAGGTCGAGATATTCGCCGCGCA","TTGTCCTGATTTTTGTTAATCCACTATATCC","CTCCCCGGCCCGCCATTGCCGCGCAGGCGGCA","GACGGTCAGGGCGGCAAGCAGCAGCAGGGGGC","GTTCAGATAATAGGCCATGGCGGTCGTTTCTTGCTGCCAGTTGC","TAAAGCGTTCTAAATCTCCCCCCCCCCCCCC","TATCCGCATTGCCGGTTACGGTATTGTCCGC","CATCACCTTAGGGAATCGTTCCCTTTGGGCC","GCGAATGCCCGCTCGCTGATGACCGGCCGCATTA","TTCAAGCAGAAGACGGCATACGAGATGAACTCCT","ATGCTCTGCCGTTTGGCGGGGTCGTCTGGGG","GTTGAAAAAATCTTTAGCTACGTCAACGCGGGTAATTTTT","GAGAATACGCCGAAAGGAACGTGTATGCTGCC","CAATACGACATCACCCCCATCGATCCGTCCAGCCTGAAGCAG","TATAATATCCCCAGTTTGTTTGTTGAAAAAC","TTCATCTCGTATGCCGTCTTCTGCTTGAAAA","TCGGCGTAATCGGCGGCAATGCGCCGCACCCGCC","CGTATGCCGTCTTCTGCTTGAAAAAAAAAAA","TCCGTTTTTGGATTTCGGAGAATGCCATGGCC","ATGGCGGTCGTTTCTTGCTGCCAGTTGCTAAG","GGAGCGACCGTAACGAACCAAACAAAAACCAAGAAG","GCAGTTTGAAGTAGCGCGCGGCGGCAACGGC","ATCTGCACGCACGTTAAAGCCGATAATGAACGC","ACCCTGGACGCCGGCTACCGCTACCACAACT","AATCCTACAGTGTTACGCAATATATAAGGGGT","TCCAATCCTACAGTGTTACGCAATATATAAGGG","ATGAAGTCGGGAAATGCCCTTATCCGGTATGCG","GAGAGGGCAACAAGCCACAAGGCTTGTATTGGGGCGGTT","CGATAAATGCTATTTCAGTCAATCGTACCGATTCCGG","GACCTTTAACGCATCCGCCATGGTCGGCAAAACGGAGC","AAGGGCTGATTATCCGGAGCGACCGTAACGAA","CGGAACGGCAACCCCTTATATATTGCGTAAC","ACGCAAATTTCAATCAGTTTTAAGGGCAGACG","CGGATGTATCAGAAAGGAGAATAAATTGCAGCCTTTAGTCAGCGT","CAGCATACACGTTCCTTTCGGCGTATTCTCGCCGTT","AGACTATCCGGACCGGTATTCCGTCGAAATCACCGCCG","GCGCATGGGCAAGCAGGTCGAGATATTCGCC","GCCGACGACGCCGTCAAAGACGACGCCGACGCCA","ACGGGGAAGCGTTTGCCAGGCAGATGCCGTCT","CCCAGTTGTGGTAGCGGTAGCCGGCGTCCAGG","TATCCCCAGTTTGTTTGTTGAAAAACTGCAA","GGGCAAGCAGGTCGAGATATTCGCCGCGCAACGG","ACAAACGACCCCAAAGCAGGGGATGGGGAATGAGCCGAT","CGGCACATTCCACGCCGTTTCTTCTCTCGGC","ACGGCATCTGCCTGGCAAACGCTTCCCCGTCGCC"],"feature_types":["int","int","int","int","int","int","int","int","int","int","int","int","int","int","int","int","int","int","int","int","int","int","int","int","int","int","int","int","int","int","int","int","int","int","int","int","int","int","int","int","int","int","int","int","int","int","int","int","int","int","int","int","int","int","int","int","int","int","int","int","int","int","int","int","int","int","int","int","int","int","int","int","int","int","int","int","int","int","int","int","int","int","int","int","int","int","int","int","int","int","int","int","int","int","int","int","int","int","int","int"],"gradient_booster":{"model":{"cats":{"enc":[],"feature_segments":[],"sorted_idx":[]},"gbtree_model_param":{"num_parallel_tree":"1","num_trees":"250"},"iteration_indptr":[0,1,2,3,4,5,6,7,8,9,10,11,12,13,14,15,16,17,18,19,20,21,22,23,24,25,26,27,28,29,30,31,32,33,34,35,36,37,38,39,40,41,42,43,44,45,46,47,48,49,50,51,52,53,54,55,56,57,58,59,60,61,62,63,64,65,66,67,68,69,70,71,72,73,74,75,76,77,78,79,80,81,82,83,84,85,86,87,88,89,90,91,92,93,94,95,96,97,98,99,100,101,102,103,104,105,106,107,108,109,110,111,112,113,114,115,116,117,118,119,120,121,122,123,124,125,126,127,128,129,130,131,132,133,134,135,136,137,138,139,140,141,142,143,144,145,146,147,148,149,150,151,152,153,154,155,156,157,158,159,160,161,162,163,164,165,166,167,168,169,170,171,172,173,174,175,176,177,178,179,180,181,182,183,184,185,186,187,188,189,190,191,192,193,194,195,196,197,198,199,200,201,202,203,204,205,206,207,208,209,210,211,212,213,214,215,216,217,218,219,220,221,222,223,224,225,226,227,228,229,230,231,232,233,234,235,236,237,238,239,240,241,242,243,244,245,246,247,248,249,250],"tree_info":[0,0,0,0,0,0,0,0,0,0,0,0,0,0,0,0,0,0,0,0,0,0,0,0,0,0,0,0,0,0,0,0,0,0,0,0,0,0,0,0,0,0,0,0,0,0,0,0,0,0,0,0,0,0,0,0,0,0,0,0,0,0,0,0,0,0,0,0,0,0,0,0,0,0,0,0,0,0,0,0,0,0,0,0,0,0,0,0,0,0,0,0,0,0,0,0,0,0,0,0,0,0,0,0,0,0,0,0,0,0,0,0,0,0,0,0,0,0,0,0,0,0,0,0,0,0,0,0,0,0,0,0,0,0,0,0,0,0,0,0,0,0,0,0,0,0,0,0,0,0,0,0,0,0,0,0,0,0,0,0,0,0,0,0,0,0,0,0,0,0,0,0,0,0,0,0,0,0,0,0,0,0,0,0,0,0,0,0,0,0,0,0,0,0,0,0,0,0,0,0,0,0,0,0,0,0,0,0,0,0,0,0,0,0,0,0,0,0,0,0,0,0,0,0,0,0,0,0,0,0,0,0,0,0,0,0,0,0,0,0,0,0,0,0,0,0,0,0,0,0],"trees":[{"base_weights":[-0E0,-9.8710287E-1,1.8711985E0,1.9166666E0,-1.7626444E0,1.8930091E0,6.666667E-1,1.6363637E-1,5.783459E-1,-2.3923445E-1,-1.8976582E0,1.9128205E0,1.4606742E0,1E0,-3.3333334E-1,5.631068E-1,-9.818182E-1,1.5E-1,-1.9026933E0,5.7455015E-1,1.5E-1,1.5714285E0,-6.666667E-2,3.9130437E-1,-6.666667E-2,-0E0,-1.5E-1,1.1E0,-1.1111112E0,-4.1379312E-1,-1.5E0,-1.9185841E0,-9.5652175E-1,5.489362E-1,1.1219512E0,1.4444444E0,-4.0000004E-1,5.454546E-2,-4.8000002E-1,2.1052632E-1,-1.3333334E0,-8.333333E-1,-5.3333336E-1,-1.9505684E0,-1.6182573E0,-8E-2,-5.04E-1,4.5000002E-1,-4.615385E-2,5.225807E-1,-2.857143E-1,6.25E-1,-3.6E-1,-4.8000002E-1,-0E0,-4.4000003E-1,1.5384616E-1,-9.4736844E-1,-5.868526E-1,-1.7636364E0,-8E-2,4E-1,-3.3333337E-1,-3.3333337E-1,2.0000002E-1,4.5000002E-1,-6.0000002E-2,-0E0,6.666667E-2,1.5E-1,-4.4000003E-1,-3.488372E-1,-5.60221E-1,8.5714296E-2,-3E-1,2.5714287E-1,-1.20000005E-1],"categories":[],"categories_nodes":[],"categories_segments":[],"categories_sizes":[],"default_left":[0,0,0,0,0,0,0,0,0,0,0,0,0,0,0,0,0,0,0,0,0,0,0,0,0,0,0,0,0,0,0,0,0,0,0,0,0,0,0,0,0,0,0,0,0,0,0,0,0,0,0,0,0,0,0,0,0,0,0,0,0,0,0,0,0,0,0,0,0,0,0,0,0,0,0,0,0],"id":0,"left_children":[1,3,5,7,9,11,13,-1,-1,15,17,19,21,23,25,27,29,-1,31,-1,-1,33,-1,-1,-1,-1,-1,35,37,39,41,43,45,-1,47,49,-1,-1,-1,51,53,55,-1,57,59,61,-1,-1,-1,-1,63,65,-1,-1,-1,-1,67,69,-1,71,73,75,-1,-1,-1,-1,-1,-1,-1,-1,-1,-1,-1,-1,-1,-1,-1],"loss_changes":[2.2423374E3,1.7931505E3,9.752319E0,1.5176392E0,1.286626E2,7.2839355E-1,3.3333335E0,0E0,0E0,3.168371E1,7.911133E0,3.3532715E-1,4.4963455E0,2.8937197E0,1.6666666E-1,2.4368284E1,7.473667E0,0E0,6.817627E0,0E0,0E0,3.857231E-1,0E0,0E0,0E0,0E0,0E0,1.8688889E1,4.557576E0,8.604961E0,1.1111107E0,2.270752E0,7.1582613E0,0E0,5.1744843E0,9.762413E0,0E0,0E0,0E0,6.3039474E0,2.1333332E0,3.9769235E0,0E0,9.914551E-1,1.3332626E1,3.5377777E0,0E0,0E0,0E0,0E0,3.4920633E0,6.075E0,0E0,0E0,0E0,0E0,3.4188032E-2,4.3035088E0,0E0,1.2577362E0,2.3885715E0,2.1714287E0,0E0,0E0,0E0,0E0,0E0,0E0,0E0,0E0,0E0,0E0,0E0,0E0,0E0,0E0,0E0],"parents":[2147483647,0,0,1,1,2,2,3,3,4,4,5,5,6,6,9,9,10,10,11,11,12,12,13,13,14,14,15,15,16,16,18,18,21,21,27,27,28,28,29,29,30,30,31,31,32,32,34,34,35,35,39,39,40,40,41,41,43,43,44,44,45,45,50,50,51,51,56,56,57,57,59,59,60,60,61,61],"right_children":[2,4,6,8,10,12,14,-1,-1,16,18,20,22,24,26,28,30,-1,32,-1,-1,34,-1,-1,-1,-1,-1,36,38,40,42,44,46,-1,48,50,-1,-1,-1,52,54,56,-1,58,60,62,-1,-1,-1,-1,64,66,-1,-1,-1,-1,68,70,-1,72,74,76,-1,-1,-1,-1,-1,-1,-1,-1,-1,-1,-1,-1,-1,-1,-1],"split_conditions":[1E0,1E0,1E0,1E0,1E0,1E0,1E0,1.6363637E-1,5.783459E-1,1E0,1E0,1E0,1E0,1E0,1E0,1E0,1E0,1.5E-1,1E0,5.7455015E-1,1.5E-1,1E0,-6.666667E-2,3.9130437E-1,-6.666667E-2,-0E0,-1.5E-1,1E0,1E0,1E0,1E0,1E0,1E0,5.489362E-1,1E0,1E0,-4.0000004E-1,5.454546E-2,-4.8000002E-1,1E0,1E0,1E0,-5.3333336E-1,1E0,1E0,1E0,-5.04E-1,4.5000002E-1,-4.615385E-2,5.225807E-1,1E0,1E0,-3.6E-1,-4.8000002E-1,-0E0,-4.4000003E-1,1E0,1E0,-5.868526E-1,1E0,1E0,1E0,-3.3333337E-1,-3.3333337E-1,2.0000002E-1,4.5000002E-1,-6.0000002E-2,-0E0,6.666667E-2,1.5E-1,-4.4000003E-1,-3.488372E-1,-5.60221E-1,8.5714296E-2,-3E-1,2.5714287E-1,-1.20000005E-1],"split_indices":[0,5,51,1,7,60,14,0,0,81,71,66,30,31,4,46,26,0,1,0,0,48,0,0,0,0,0,69,77,21,27,11,18,0,11,97,0,0,0,48,4,44,0,56,4,9,0,0,0,0,4,62,0,0,0,0,38,42,0,36,6,21,0,0,0,0,0,0,0,0,0,0,0,0,0,0,0],"split_type":[0,0,0,0,0,0,0,0,0,0,0,0,0,0,0,0,0,0,0,0,0,0,0,0,0,0,0,0,0,0,0,0,0,0,0,0,0,0,0,0,0,0,0,0,0,0,0,0,0,0,0,0,0,0,0,0,0,0,0,0,0,0,0,0,0,0,0,0,0,0,0,0,0,0,0,0,0],"sum_hessian":[1.212E3,7.9375E2,4.1825E2,1.67E2,6.2675E2,4.1025E2,8E0,1.75E0,1.6525E2,5.125E1,5.755E2,3.89E2,2.125E1,6E0,2E0,2.475E1,2.65E1,1E0,5.745E2,3.88E2,1E0,2E1,1.25E0,4.75E0,1.25E0,1E0,1E0,1.9E1,5.75E0,1.35E1,1.3E1,5.64E2,1.05E1,1.075E1,9.25E0,1.7E1,2E0,1.75E0,4E0,8.5E0,5E0,5E0,8E0,5.0475E2,5.925E1,5.25E0,5.25E0,7E0,2.25E0,1.45E1,2.5E0,7E0,1.5E0,4E0,1E0,2.75E0,2.25E0,3.75E0,5.01E2,5.4E1,5.25E0,4E0,1.25E0,1.25E0,1.25E0,3E0,4E0,1E0,1.25E0,1E0,2.75E0,9.75E0,4.425E1,4.25E0,1E0,2.5E0,1.5E0],"tree_param":{"num_deleted":"0","num_feature":"100","num_nodes":"77","size_leaf_vector":"1"}},{"base_weights":[-1.7808295E-3,-7.61353E-1,1.4372604E0,1.4765171E0,-1.3572863E0,1.4552585E0,4.9884582E-1,1.3303041E-1,4.4560406E-1,-2.1181162E-1,-1.4621825E0,1.518267E0,1.3155396E0,3.5374475E-1,9.8454E-2,1.1698019E-1,-1.380923E0,-1.4742879E0,-7.617496E-1,6.549326E-1,4.575586E-1,1.423454E0,9.597855E-1,3.2710105E-1,-4.6155742E-1,6.966599E-1,-5.3888935E-1,-4.5092902E-1,-6.087867E-1,-1.2581698E0,-1.5107987E0,-2.3443423E-2,-4.1691938E-1,2.894548E-1,-5.883776E-3,1.6693893E-1,4.3241012E-1,-5.1991516E-1,1.3167459E0,-2.5681108E-1,-4.638464E-2,1.0122524E0,-5.975671E-1,1.301235E-1,-1.079989E0,-2.661606E-1,-0E0,-7.690921E-1,-1.338785E0,-6.452837E-1,-1.5155231E0,-2.616441E-1,6.58067E-1,2.1876726E-1,-1.1950345E0,4.387338E-1,-9.0803094E-2,-7.7656455E-2,5.645318E-2,1.2497523E0,-2.958604E-1,1.4334825E-1,-3.616669E-1,4.984079E-1,-3.0258015E-1,-4.911242E-1,-4.1979283E-1,-6.281549E-2,-3.7663308E-1,-1.0837661E0,-4.5803204E-1,8.564515E-2,-3.3910352E-1,-4.596174E-1,-1.1570077E0,3.0557296E-1,3.6707684E-2,2.0286757E-2,-5.1241666E-1,4.2357314E-1,1.3258918E-2,3.6378396E-1,-4.5637105E-2,1.7170532E-1,-3.4910446E-1,-1.189695E-1,5.1423095E-2,-2.42365E-1,-4.3134832E-1,-4.4213977E-1,4.412438E-2],"categories":[],"categories_nodes":[],"categories_segments":[],"categories_sizes":[],"default_left":[0,0,0,0,0,0,0,0,0,0,0,0,0,0,0,0,0,0,0,0,0,0,0,0,0,0,0,0,0,0,0,0,0,0,0,0,0,0,0,0,0,0,0,0,0,0,0,0,0,0,0,0,0,0,0,0,0,0,0,0,0,0,0,0,0,0,0,0,0,0,0,0,0,0,0,0,0,0,0,0,0,0,0,0,0,0,0,0,0,0,0],"id":1,"left_children":[1,3,5,7,9,11,13,-1,-1,15,17,19,21,-1,23,25,27,29,31,33,-1,35,37,-1,39,41,43,-1,45,47,49,51,-1,-1,-1,-1,-1,53,55,-1,57,59,61,63,65,-1,-1,67,69,71,73,-1,75,-1,77,-1,-1,-1,-1,79,-1,-1,-1,81,-1,83,-1,85,-1,87,-1,-1,-1,-1,89,-1,-1,-1,-1,-1,-1,-1,-1,-1,-1,-1,-1,-1,-1,-1,-1],"loss_changes":[1.2263441E3,9.813272E2,5.8207397E0,7.54364E-1,6.943213E1,1.3460693E0,2.2852042E0,0E0,0E0,1.9328476E1,3.3840332E0,5.2789307E-1,3.4530182E0,0E0,4.1919036E0,1.5522237E1,1.24788284E-1,2.2139893E0,5.113795E0,8.1012547E-1,0E0,6.615448E-1,1.773779E1,0E0,7.704836E-1,9.420976E0,7.1110125E0,0E0,5.401168E-1,2.1775208E0,8.2580566E-1,4.113134E0,0E0,0E0,0E0,0E0,0E0,6.76773E0,6.6467247E0,0E0,2.2152314E-1,9.644943E0,3.7538095E0,4.4877806E0,1.3346996E0,0E0,0E0,4.6822987E0,1.628479E0,2.1901348E0,8.2373047E-1,0E0,6.4087045E-1,0E0,3.301034E0,0E0,0E0,0E0,0E0,3.1206837E0,0E0,0E0,0E0,3.831452E0,0E0,4.4722376E0,0E0,5.92129E-1,0E0,2.0136833E0,0E0,0E0,0E0,0E0,9.881613E0,0E0,0E0,0E0,0E0,0E0,0E0,0E0,0E0,0E0,0E0,0E0,0E0,0E0,0E0,0E0,0E0],"parents":[2147483647,0,0,1,1,2,2,3,3,4,4,5,5,6,6,9,9,10,10,11,11,12,12,14,14,15,15,16,16,17,17,18,18,19,19,21,21,22,22,24,24,25,25,26,26,28,28,29,29,30,30,31,31,37,37,38,38,40,40,41,41,42,42,43,43,44,44,47,47,48,48,49,49,50,50,52,52,54,54,59,59,63,63,65,65,67,67,69,69,74,74],"right_children":[2,4,6,8,10,12,14,-1,-1,16,18,20,22,-1,24,26,28,30,32,34,-1,36,38,-1,40,42,44,-1,46,48,50,52,-1,-1,-1,-1,-1,54,56,-1,58,60,62,64,66,-1,-1,68,70,72,74,-1,76,-1,78,-1,-1,-1,-1,80,-1,-1,-1,82,-1,84,-1,86,-1,88,-1,-1,-1,-1,90,-1,-1,-1,-1,-1,-1,-1,-1,-1,-1,-1,-1,-1,-1,-1,-1],"split_conditions":[1E0,1E0,1E0,1E0,1E0,1E0,1E0,1.3303041E-1,4.4560406E-1,1E0,1E0,1E0,1E0,3.5374475E-1,1E0,1E0,1E0,1E0,1E0,1E0,4.575586E-1,1E0,1E0,3.2710105E-1,1E0,1E0,1E0,-4.5092902E-1,1E0,1E0,1E0,1E0,-4.1691938E-1,2.894548E-1,-5.883776E-3,1.6693893E-1,4.3241012E-1,1E0,1E0,-2.5681108E-1,1E0,1E0,1E0,1E0,1E0,-2.661606E-1,-0E0,1E0,1E0,1E0,1E0,-2.616441E-1,1E0,2.1876726E-1,1E0,4.387338E-1,-9.0803094E-2,-7.7656455E-2,5.645318E-2,1E0,-2.958604E-1,1.4334825E-1,-3.616669E-1,1E0,-3.0258015E-1,1E0,-4.1979283E-1,1E0,-3.7663308E-1,1E0,-4.5803204E-1,8.564515E-2,-3.3910352E-1,-4.596174E-1,1E0,3.0557296E-1,3.6707684E-2,2.0286757E-2,-5.1241666E-1,4.2357314E-1,1.3258918E-2,3.6378396E-1,-4.5637105E-2,1.7170532E-1,-3.4910446E-1,-1.189695E-1,5.1423095E-2,-2.42365E-1,-4.3134832E-1,-4.4213977E-1,4.412438E-2],"split_indices":[0,5,51,1,7,14,8,0,0,48,1,56,11,0,56,81,11,22,34,42,0,35,9,0,35,46,26,0,4,9,56,26,0,0,0,0,0,22,73,0,4,69,27,21,29,0,0,36,42,23,4,0,27,0,27,0,0,0,0,97,0,0,0,62,0,63,0,11,0,68,0,0,0,0,11,0,0,0,0,0,0,0,0,0,0,0,0,0,0,0,0],"split_type":[0,0,0,0,0,0,0,0,0,0,0,0,0,0,0,0,0,0,0,0,0,0,0,0,0,0,0,0,0,0,0,0,0,0,0,0,0,0,0,0,0,0,0,0,0,0,0,0,0,0,0,0,0,0,0,0,0,0,0,0,0,0,0,0,0,0,0,0,0,0,0,0,0,0,0,0,0,0,0,0,0,0,0,0,0,0,0,0,0,0,0],"sum_hessian":[1.11994E3,7.3333374E2,3.866062E2,1.5390533E2,5.794284E2,3.7879047E2,7.8157206E0,1.7383372E0,1.5216699E2,4.8862698E1,5.3056573E2,2.5426085E2,1.2452963E2,2.175075E0,5.6406455E0,3.8839672E1,1.0023026E1,5.204659E2,1.0099875E1,2.7846997E0,2.5147615E2,9.324382E1,3.1285814E1,1.6937369E0,3.9469087E0,2.0584341E1,1.8255333E1,7.8364134E0,2.1866136E0,8.034438E1,4.4012146E2,5.118951E0,4.9809246E0,1.6131673E0,1.1715324E0,2.5365987E0,9.070722E1,5.9917645E0,2.529405E1,1.479382E0,2.4675267E0,1.6724102E1,3.8602393E0,8.502458E0,9.752874E0,1.1866136E0,1E0,1.286078E1,6.7483604E1,3.1362689E0,4.369852E2,2.1552427E0,2.9637084E0,2.0740724E0,3.9176922E0,2.3295115E1,1.9989353E0,1.2403915E0,1.2271352E0,1.52825365E1,1.4415646E0,1.4715275E0,2.3887117E0,6.8495097E0,1.652948E0,4.3215156E0,5.431359E0,5.70507E0,7.15571E0,3.150712E1,3.5976482E1,1.2154437E0,1.9208251E0,4.145907E2,2.2394518E1,1.2327521E0,1.7309564E0,1.3827149E0,2.5349772E0,1.3319742E1,1.9627949E0,2.8531075E0,3.9964023E0,1.731922E0,2.5895936E0,2.0668776E0,3.6381927E0,1.9553165E1,1.1953955E1,1.791294E1,4.481579E0],"tree_param":{"num_deleted":"0","num_feature":"100","num_nodes":"91","size_leaf_vector":"1"}},{"base_weights":[-3.5780105E-3,-6.514019E-1,1.2234472E0,1.2623832E0,-1.1572099E0,1.2409257E0,4.15449E-1,1.0891466E-1,3.814405E-1,-1.9469973E-1,-1.2512151E0,1.3037919E0,1.1047395E0,8.5426044E-1,-4.9737584E-2,7.6436415E-2,-3.488508E-1,-1.2632045E0,-6.172763E-1,5.6145513E-1,3.9310336E-1,8.777775E-1,3.8819635E-1,3.2682395E-1,3.389002E-2,2.0722786E-1,-5.949712E-1,3.0594942E-1,-3.4287363E-1,-1.052805E0,-1.3002566E0,-4.4847773E-3,-3.530623E-1,2.5309986E-1,-4.927573E-3,5.318151E-1,1.1403582E0,-6.080577E-2,-2.1599038E-1,5.057251E-1,-2.852786E-1,-8.4890205E-1,-3.7659472E-1,-1.3240753E0,-1.0582252E0,-2.1789709E-1,5.5795664E-1,7.1733314E-1,-1.0081608E0,3.6517772E-1,3.3012573E-2,-3.159964E-1,7.0503867E-1,-6.408533E-1,-3.8056767E-1,-4.0535092E-1,-3.9895377E-1,-1.2164845E0,1.1116123E-1,2.6309487E-1,2.977307E-2,3.27779E-1,-1.710174E-1,7.8034714E-2,-5.403852E-1,2.778436E-1,-7.821761E-2,-2.874289E-1,-5.025287E-2,9.605166E-2,-2.707678E-1,5.8068186E-2,-3.9912686E-1,1.9420815E-1,-1.1383958E-1,2.249383E-1,-1.3870117E-1],"categories":[],"categories_nodes":[],"categories_segments":[],"categories_sizes":[],"default_left":[0,0,0,0,0,0,0,0,0,0,0,0,0,0,0,0,0,0,0,0,0,0,0,0,0,0,0,0,0,0,0,0,0,0,0,0,0,0,0,0,0,0,0,0,0,0,0,0,0,0,0,0,0,0,0,0,0,0,0,0,0,0,0,0,0,0,0,0,0,0,0,0,0,0,0,0,0],"id":2,"left_children":[1,3,5,7,9,11,13,-1,-1,15,17,19,21,23,25,27,-1,29,31,33,-1,35,-1,-1,-1,-1,37,39,-1,41,43,45,-1,-1,-1,47,49,-1,-1,51,-1,53,-1,55,57,-1,59,61,63,-1,-1,-1,65,67,-1,69,-1,71,73,-1,-1,-1,75,-1,-1,-1,-1,-1,-1,-1,-1,-1,-1,-1,-1,-1,-1],"loss_changes":[7.596649E2,6.069065E2,4.148041E0,6.1061096E-1,4.4565063E1,1.3226318E0,1.7766334E0,0E0,0E0,1.1966333E1,2.6479492E0,3.1134033E-1,3.5234222E0,6.485679E-1,2.4574444E0,1.0504725E1,0E0,2.0740967E0,3.5358396E0,6.0636127E-1,0E0,4.15662E0,0E0,0E0,0E0,0E0,2.3560047E-2,8.347007E0,0E0,1.8820496E0,7.3913574E-1,2.813923E0,0E0,0E0,0E0,7.722058E0,2.1585655E0,0E0,0E0,9.345051E0,0E0,2.5623379E0,0E0,1.2317505E0,7.21294E0,0E0,4.8371375E-1,7.670314E0,3.5361674E0,0E0,0E0,0E0,5.610799E0,4.02413E0,0E0,1.5599718E0,0E0,5.682789E0,1.6860029E0,0E0,0E0,0E0,2.3669202E0,0E0,0E0,0E0,0E0,0E0,0E0,0E0,0E0,0E0,0E0,0E0,0E0,0E0,0E0],"parents":[2147483647,0,0,1,1,2,2,3,3,4,4,5,5,6,6,9,9,10,10,11,11,12,12,13,13,14,14,15,15,17,17,18,18,19,19,21,21,26,26,27,27,29,29,30,30,31,31,35,35,36,36,39,39,41,41,43,43,44,44,46,46,47,47,48,48,52,52,53,53,55,55,57,57,58,58,62,62],"right_children":[2,4,6,8,10,12,14,-1,-1,16,18,20,22,24,26,28,-1,30,32,34,-1,36,-1,-1,-1,-1,38,40,-1,42,44,46,-1,-1,-1,48,50,-1,-1,52,-1,54,-1,56,58,-1,60,62,64,-1,-1,-1,66,68,-1,70,-1,72,74,-1,-1,-1,76,-1,-1,-1,-1,-1,-1,-1,-1,-1,-1,-1,-1,-1,-1],"split_conditions":[1E0,1E0,1E0,1E0,1E0,1E0,1E0,1.0891466E-1,3.814405E-1,1E0,1E0,1E0,1E0,1E0,1E0,1E0,-3.488508E-1,1E0,1E0,1E0,3.9310336E-1,1E0,3.8819635E-1,3.2682395E-1,3.389002E-2,2.0722786E-1,1E0,1E0,-3.4287363E-1,1E0,1E0,1E0,-3.530623E-1,2.5309986E-1,-4.927573E-3,1E0,1E0,-6.080577E-2,-2.1599038E-1,1E0,-2.852786E-1,1E0,-3.7659472E-1,1E0,1E0,-2.1789709E-1,1E0,1E0,1E0,3.6517772E-1,3.3012573E-2,-3.159964E-1,1E0,1E0,-3.8056767E-1,1E0,-3.9895377E-1,1E0,1E0,2.6309487E-1,2.977307E-2,3.27779E-1,1E0,7.8034714E-2,-5.403852E-1,2.778436E-1,-7.821761E-2,-2.874289E-1,-5.025287E-2,9.605166E-2,-2.707678E-1,5.8068186E-2,-3.9912686E-1,1.9420815E-1,-1.1383958E-1,2.249383E-1,-1.3870117E-1],"split_indices":[0,5,51,1,7,14,39,0,0,48,1,56,63,44,29,21,0,22,34,42,0,19,0,0,0,0,35,69,0,19,11,26,0,0,0,12,4,0,0,9,0,53,0,56,4,0,27,11,6,0,0,0,62,62,0,29,0,23,19,0,0,0,42,0,0,0,0,0,0,0,0,0,0,0,0,0,0],"split_type":[0,0,0,0,0,0,0,0,0,0,0,0,0,0,0,0,0,0,0,0,0,0,0,0,0,0,0,0,0,0,0,0,0,0,0,0,0,0,0,0,0,0,0,0,0,0,0,0,0,0,0,0,0,0,0,0,0,0,0,0,0,0,0,0,0,0,0,0,0,0,0,0,0,0,0,0,0],"sum_hessian":[9.5367554E2,6.244554E2,3.2922018E2,1.3022766E2,4.942277E2,3.2172485E2,7.495329E0,1.7120531E0,1.2851561E2,4.4247993E1,4.499797E2,2.1424959E2,1.0747528E2,3.4266143E0,4.0687146E0,3.5286663E1,8.961332E0,4.4065323E2,9.326462E0,2.6331153E0,2.1161647E2,5.1432014E1,5.6043266E1,2.244883E0,1.1817313E0,1.6122149E0,2.4565E0,3.0327356E1,4.959307E0,7.0385414E1,3.7026782E2,4.9327903E0,4.3936715E0,1.4601237E0,1.1729918E0,2.3497843E1,2.7934172E1,1.2270619E0,1.2294381E0,2.6683722E1,3.643635E0,3.7659206E1,3.272621E1,3.3302365E2,3.7244175E1,2.0326743E0,2.9001162E0,2.1448208E1,2.049634E0,2.5825188E1,2.1089842E0,2.5389686E0,2.4144753E1,2.686682E1,1.0792385E1,2.5233433E0,3.305003E2,3.276908E1,4.4750934E0,1.1726955E0,1.7274206E0,1.4916961E1,6.5312476E0,1.047162E0,1.0024719E0,1.9680117E1,4.464635E0,1.54726715E1,1.1394148E1,1.1708733E0,1.3524702E0,2.3976827E0,3.0371399E1,1.9856004E0,2.4894931E0,1.191461E0,5.339787E0],"tree_param":{"num_deleted":"0","num_feature":"100","num_nodes":"77","size_leaf_vector":"1"}},{"base_weights":[-4.881909E-3,-5.8115315E-1,1.086763E0,1.1283488E0,-1.027659E0,1.0950396E0,-1.1256816E-1,8.953163E-2,1.1387305E0,-1.8158656E-1,-1.1187952E0,1.1746987E0,9.314627E-1,1.4115292E-1,3.439282E-1,4.899064E-1,-4.542606E-1,-1.1314878E0,-5.1484215E-1,3.5702875E-1,7.632483E-1,9.917463E-1,1.9179761E-1,9.72333E-1,-2.9893583E-1,-8.253477E-1,3.9283935E-2,-8.9862996E-1,-1.1755415E0,9.213439E-3,-3.1112725E-1,2.6969987E-1,-1.0195388E-2,4.9284962E-1,1.0847138E0,2.75536E-1,-9.5847666E-1,3.513733E-1,8.875468E-2,-3.5534417E-3,-8.7910503E-1,3.9618534E-1,-7.1428794E-1,-3.9858732E-1,-9.935107E-1,-1.2026805E0,-9.1499513E-1,-1.8408671E-1,4.7971538E-1,8.382814E-1,-8.6899035E-2,8.648381E-1,3.6096177E-1,-3.9090705E-1,-4.2796273E-2,-5.4583895E-1,-3.3574933E-1,7.7481174E-1,-1.2105774E-1,4.599188E-2,-3.0391318E-1,1.8492657E-1,-9.15997E-1,-7.1448123E-1,-3.6646968E-1,-3.4925398E-1,-3.627262E-1,6.35096E-2,-1.0872692E0,2.3133898E-1,2.415454E-2,3.43962E-1,3.2320842E-1,3.284252E-1,-4.8781672E-1,-1.6075673E-2,-3.8046005E-1,-1.9432127E-2,2.9964682E-1,8.496435E-2,-2.427757E-1,-5.4264637E-3,1.6723399E-1,-3.1011608E-1,-6.310433E-2,-1.3344741E-1,-3.3712226E-1,9.2130125E-2,-2.4506873E-1,2.3010409E-1,-1.3083132E-1,4.4825133E-2,-3.6410192E-1,2.694589E-1,-1.7753585E-1,1.5214361E-1,-3.2385704E-1],"categories":[],"categories_nodes":[],"categories_segments":[],"categories_sizes":[],"default_left":[0,0,0,0,0,0,0,0,0,0,0,0,0,0,0,0,0,0,0,0,0,0,0,0,0,0,0,0,0,0,0,0,0,0,0,0,0,0,0,0,0,0,0,0,0,0,0,0,0,0,0,0,0,0,0,0,0,0,0,0,0,0,0,0,0,0,0,0,0,0,0,0,0,0,0,0,0,0,0,0,0,0,0,0,0,0,0,0,0,0,0,0,0,0,0,0,0],"id":3,"left_children":[1,3,5,7,9,11,-1,-1,13,15,17,19,21,-1,-1,23,25,27,29,-1,31,33,35,37,-1,39,41,43,45,47,-1,-1,-1,49,51,-1,53,-1,-1,-1,55,57,59,61,63,65,67,-1,69,71,-1,73,-1,-1,-1,75,-1,77,79,-1,-1,81,83,85,-1,87,-1,89,91,-1,-1,93,-1,-1,95,-1,-1,-1,-1,-1,-1,-1,-1,-1,-1,-1,-1,-1,-1,-1,-1,-1,-1,-1,-1,-1,-1],"loss_changes":[4.9545752E2,3.9461664E2,3.7035522E0,5.840454E-1,3.1352234E1,2.434967E0,0E0,0E0,3.4332275E-3,7.7275486E0,2.2480774E0,2.2128296E-1,3.980194E0,0E0,0E0,9.802079E0,5.466463E0,2.644867E0,2.5918825E0,0E0,1.0283928E0,3.4653244E0,7.8078732E0,9.730196E-1,0E0,7.3222256E-1,3.9645452E0,2.528801E0,1.0220337E0,1.9649299E0,0E0,0E0,0E0,4.399831E0,8.3166504E-1,0E0,8.5359955E-1,0E0,0E0,0E0,6.624031E-1,2.038968E0,1.388114E0,3.6419237E0,2.3817825E0,1.0467834E0,5.5470886E0,0E0,3.809921E-1,9.206829E-1,0E0,9.466005E0,0E0,0E0,0E0,2.995775E0,0E0,1.1686523E0,1.6377088E0,0E0,0E0,4.8181087E-1,3.0292654E-1,2.3044662E0,0E0,1.2969623E0,0E0,2.3764832E0,4.5094643E0,0E0,0E0,3.1406047E0,0E0,0E0,3.4111967E0,0E0,0E0,0E0,0E0,0E0,0E0,0E0,0E0,0E0,0E0,0E0,0E0,0E0,0E0,0E0,0E0,0E0,0E0,0E0,0E0,0E0,0E0],"parents":[2147483647,0,0,1,1,2,2,3,3,4,4,5,5,8,8,9,9,10,10,11,11,12,12,15,15,16,16,17,17,18,18,20,20,21,21,22,22,23,23,25,25,26,26,27,27,28,28,29,29,33,33,34,34,36,36,40,40,41,41,42,42,43,43,44,44,45,45,46,46,48,48,49,49,51,51,55,55,57,57,58,58,61,61,62,62,63,63,65,65,67,67,68,68,71,71,74,74],"right_children":[2,4,6,8,10,12,-1,-1,14,16,18,20,22,-1,-1,24,26,28,30,-1,32,34,36,38,-1,40,42,44,46,48,-1,-1,-1,50,52,-1,54,-1,-1,-1,56,58,60,62,64,66,68,-1,70,72,-1,74,-1,-1,-1,76,-1,78,80,-1,-1,82,84,86,-1,88,-1,90,92,-1,-1,94,-1,-1,96,-1,-1,-1,-1,-1,-1,-1,-1,-1,-1,-1,-1,-1,-1,-1,-1,-1,-1,-1,-1,-1,-1],"split_conditions":[1E0,1E0,1E0,1E0,1E0,1E0,-1.1256816E-1,8.953163E-2,1E0,1E0,1E0,1E0,1E0,1.4115292E-1,3.439282E-1,1E0,1E0,1E0,1E0,3.5702875E-1,1E0,1E0,1E0,1E0,-2.9893583E-1,1E0,1E0,1E0,1E0,1E0,-3.1112725E-1,2.6969987E-1,-1.0195388E-2,1E0,1E0,2.75536E-1,1E0,3.513733E-1,8.875468E-2,-3.5534417E-3,1E0,1E0,1E0,1E0,1E0,1E0,1E0,-1.8408671E-1,1E0,1E0,-8.6899035E-2,1E0,3.6096177E-1,-3.9090705E-1,-4.2796273E-2,1E0,-3.3574933E-1,1E0,1E0,4.599188E-2,-3.0391318E-1,1E0,1E0,1E0,-3.6646968E-1,1E0,-3.627262E-1,1E0,1E0,2.3133898E-1,2.415454E-2,1E0,3.2320842E-1,3.284252E-1,1E0,-1.6075673E-2,-3.8046005E-1,-1.9432127E-2,2.9964682E-1,8.496435E-2,-2.427757E-1,-5.4264637E-3,1.6723399E-1,-3.1011608E-1,-6.310433E-2,-1.3344741E-1,-3.3712226E-1,9.2130125E-2,-2.4506873E-1,2.3010409E-1,-1.3083132E-1,4.4825133E-2,-3.6410192E-1,2.694589E-1,-1.7753585E-1,1.5214361E-1,-3.2385704E-1],"split_indices":[0,5,66,1,7,14,0,0,52,42,1,61,73,0,0,32,54,22,34,0,30,18,22,45,0,83,48,9,11,26,0,0,0,11,50,0,41,0,0,0,29,14,46,36,42,56,46,0,27,25,0,25,0,0,0,62,0,33,49,0,0,12,61,68,0,38,0,44,23,0,0,42,0,0,22,0,0,0,0,0,0,0,0,0,0,0,0,0,0,0,0,0,0,0,0,0,0],"split_type":[0,0,0,0,0,0,0,0,0,0,0,0,0,0,0,0,0,0,0,0,0,0,0,0,0,0,0,0,0,0,0,0,0,0,0,0,0,0,0,0,0,0,0,0,0,0,0,0,0,0,0,0,0,0,0,0,0,0,0,0,0,0,0,0,0,0,0,0,0,0,0,0,0,0,0,0,0,0,0,0,0,0,0,0,0,0,0,0,0,0,0,0,0,0,0,0,0],"sum_hessian":[7.8558215E2,5.144667E2,2.7111548E2,1.0622901E2,4.0823767E2,2.6983887E2,1.2766049E0,1.6799608E0,1.0454905E2,3.9988846E1,3.682488E2,1.7731046E2,9.252842E1,1.898016E0,1.0265103E2,1.1318641E1,2.8670204E1,3.598135E2,8.435318E0,1.6909042E2,8.22003E0,8.524041E1,7.288006E0,8.806235E0,2.5124054E0,1.5981626E1,1.2688579E1,6.0646793E1,2.9916672E2,4.7007055E0,3.7346122E0,6.9149213E0,1.3051088E0,1.4378977E1,7.0861435E1,4.5899563E0,2.6980498E0,6.2400575E0,2.566178E0,1.066267E0,1.4915359E1,8.932356E0,3.7562227E0,1.05016575E1,5.0145134E1,2.676698E2,3.1496918E1,1.8919778E0,2.8087277E0,9.92599E0,4.4529867E0,2.7720871E1,4.3140564E1,1.4770544E0,1.2209953E0,7.6160407E0,7.2993174E0,4.8697166E0,4.062639E0,1.0868467E0,2.669376E0,5.2375503E0,5.264107E0,2.441089E1,2.5734245E1,2.408151E0,2.6526163E2,4.8096695E0,2.6687248E1,1.0849973E0,1.7237306E0,4.0307474E0,5.8952427E0,2.38566E1,3.864271E0,5.1682887E0,2.4477518E0,1.1753584E0,3.694358E0,2.9299438E0,1.1326953E0,4.0058813E0,1.231669E0,4.113014E0,1.1510932E0,1.5973216E1,8.4376745E0,1.1447488E0,1.2634022E0,1.7750367E0,3.034633E0,2.4579127E0,2.4229334E1,2.5566182E0,1.4741291E0,1.4943739E0,2.3698971E0],"tree_param":{"num_deleted":"0","num_feature":"100","num_nodes":"97","size_leaf_vector":"1"}},{"base_weights":[-6.248015E-3,-5.2818924E-1,9.8689485E-1,1.030309E0,-9.2925894E-1,1.0105296E0,1.8692559E-1,7.376256E-2,1.0426689E0,-1.616544E-1,-1.0234467E0,1.0363587E0,5.6701094E-1,4.287075E-1,-1.5211634E-1,1.2133783E-1,3.15349E-1,3.912077E-2,-9.144659E-1,-7.892935E-1,-1.0708427E0,1.1029515E0,8.9562494E-1,3.0850005E-1,1.1415514E-1,-5.8779888E-2,2.2434199E-1,2.2126015E-1,-2.7430886E-1,-3.234914E-1,-6.584382E-2,-5.8089083E-1,-3.0896935E-1,-1.0903127E0,-3.2821763E-1,1.1900245E-1,3.3266795E-1,3.3505875E-1,6.668897E-1,1.8008721E-1,-4.8048845E-1,3.6751738E-1,-2.1938425E-1,-3.7180132E-1,-3.2607087E-1,-1.1226581E0,-8.012206E-1,2.618364E-1,-2.7877182E-1,-4.2538327E-1,7.7354896E-1,1.9199401E-2,-2.4271089E-1,-2.5006798E-1,5.116453E-1,-7.4852425E-1,2.181158E-1,-3.047074E-1,-3.3904344E-1,-9.8249E-1,1.2796043E-1,1.8656838E-1,-9.2973925E-2,8.7905455E-1,-3.1872815E-1,1.8211068E-1,-2.147386E-1,-3.339266E-1,1.6246649E-2,3.1540588E-1,-2.874191E-1,9.692308E-2,-2.2965276E-1,1.1671093E-1,-3.2993934E-1,1.4632785E-1,-6.1278347E-2,3.0557853E-1,1.2562674E-1],"categories":[],"categories_nodes":[],"categories_segments":[],"categories_sizes":[],"default_left":[0,0,0,0,0,0,0,0,0,0,0,0,0,0,0,0,0,0,0,0,0,0,0,0,0,0,0,0,0,0,0,0,0,0,0,0,0,0,0,0,0,0,0,0,0,0,0,0,0,0,0,0,0,0,0,0,0,0,0,0,0,0,0,0,0,0,0,0,0,0,0,0,0,0,0,0,0,0,0],"id":4,"left_children":[1,3,5,7,9,11,13,-1,15,17,19,21,23,25,-1,-1,-1,27,29,31,33,35,37,-1,39,-1,-1,41,-1,-1,-1,43,-1,45,47,-1,-1,-1,49,-1,51,53,-1,55,-1,57,59,61,-1,-1,63,-1,-1,-1,65,67,69,71,-1,73,75,-1,-1,77,-1,-1,-1,-1,-1,-1,-1,-1,-1,-1,-1,-1,-1,-1,-1],"loss_changes":[3.31535E2,2.6301044E2,3.977005E0,5.8016205E-1,2.3979431E1,1.8614655E0,1.4841881E0,0E0,3.366089E-2,5.731997E0,2.4539185E0,8.941498E-1,2.8017745E0,1.3705605E0,0E0,0E0,0E0,5.5357995E0,6.715164E-1,2.1017303E0,3.1762695E0,1.1402893E-1,2.7884254E0,0E0,2.6519718E0,0E0,0E0,3.9732437E0,0E0,0E0,0E0,2.8913698E0,0E0,1.3236694E0,2.9652276E0,0E0,0E0,0E0,9.282301E0,0E0,8.090286E-1,4.532053E0,0E0,5.399194E0,0E0,9.4976807E-1,4.7435913E0,1.1506425E0,0E0,0E0,7.8426514E0,0E0,0E0,0E0,2.9864326E0,4.333805E0,1.076487E1,1.1978807E0,0E0,4.1374435E0,7.4036026E-1,0E0,0E0,1.7749538E0,0E0,0E0,0E0,0E0,0E0,0E0,0E0,0E0,0E0,0E0,0E0,0E0,0E0,0E0,0E0],"parents":[2147483647,0,0,1,1,2,2,3,3,4,4,5,5,6,6,8,8,9,9,10,10,11,11,12,12,13,13,17,17,18,18,19,19,20,20,21,21,22,22,24,24,27,27,31,31,33,33,34,34,38,38,40,40,41,41,43,43,45,45,46,46,47,47,50,50,54,54,55,55,56,56,57,57,59,59,60,60,63,63],"right_children":[2,4,6,8,10,12,14,-1,16,18,20,22,24,26,-1,-1,-1,28,30,32,34,36,38,-1,40,-1,-1,42,-1,-1,-1,44,-1,46,48,-1,-1,-1,50,-1,52,54,-1,56,-1,58,60,62,-1,-1,64,-1,-1,-1,66,68,70,72,-1,74,76,-1,-1,78,-1,-1,-1,-1,-1,-1,-1,-1,-1,-1,-1,-1,-1,-1,-1],"split_conditions":[1E0,1E0,1E0,1E0,1E0,1E0,1E0,7.376256E-2,1E0,1E0,1E0,1E0,1E0,1E0,-1.5211634E-1,1.2133783E-1,3.15349E-1,1E0,1E0,1E0,1E0,1E0,1E0,3.0850005E-1,1E0,-5.8779888E-2,2.2434199E-1,1E0,-2.7430886E-1,-3.234914E-1,-6.584382E-2,1E0,-3.0896935E-1,1E0,1E0,1.1900245E-1,3.3266795E-1,3.3505875E-1,1E0,1.8008721E-1,1E0,1E0,-2.1938425E-1,1E0,-3.2607087E-1,1E0,1E0,1E0,-2.7877182E-1,-4.2538327E-1,1E0,1.9199401E-2,-2.4271089E-1,-2.5006798E-1,1E0,1E0,1E0,1E0,-3.3904344E-1,1E0,1E0,1.8656838E-1,-9.2973925E-2,1E0,-3.1872815E-1,1.8211068E-1,-2.147386E-1,-3.339266E-1,1.6246649E-2,3.1540588E-1,-2.874191E-1,9.692308E-2,-2.2965276E-1,1.1671093E-1,-3.2993934E-1,1.4632785E-1,-6.1278347E-2,3.0557853E-1,1.2562674E-1],"split_indices":[0,5,51,1,7,60,31,0,52,48,22,14,7,27,0,0,0,21,11,19,1,23,31,0,22,0,0,69,0,0,0,84,0,11,18,0,0,0,15,0,14,9,0,62,0,56,4,21,0,0,12,0,0,0,85,11,42,40,0,52,19,0,0,11,0,0,0,0,0,0,0,0,0,0,0,0,0,0,0],"split_type":[0,0,0,0,0,0,0,0,0,0,0,0,0,0,0,0,0,0,0,0,0,0,0,0,0,0,0,0,0,0,0,0,0,0,0,0,0,0,0,0,0,0,0,0,0,0,0,0,0,0,0,0,0,0,0,0,0,0,0,0,0,0,0,0,0,0,0,0,0,0,0,0,0,0,0,0,0,0,0],"sum_hessian":[6.375761E2,4.1824026E2,2.1933588E2,8.528118E1,3.3295908E2,2.12786E2,6.5498905E0,1.6469867E0,8.36342E1,3.668692E1,2.9627216E2,1.9981285E2,1.2973139E1,5.141014E0,1.4088761E0,1.737067E0,8.189713E1,2.9711014E1,6.975907E0,5.2846222E1,2.4342593E2,1.3099243E2,6.882042E1,5.7969913E0,7.176148E0,1.8687984E0,3.2722158E0,2.5590525E1,4.1204886E0,5.198779E0,1.777128E0,3.0147682E1,2.2698538E1,2.3675067E2,6.675263E0,1.6580986E0,1.2933434E2,3.3009834E1,3.5810585E1,3.9430845E0,3.2330635E0,2.271668E1,2.873845E0,2.2560297E1,7.5873847E0,2.1033385E2,2.6416819E1,3.6531372E0,3.0221257E0,1.1445367E0,3.466605E1,1.5197179E0,1.7133455E0,1.9213988E0,2.079528E1,1.3603925E1,8.956372E0,2.2859128E0,2.0804793E2,2.2056543E1,4.3602753E0,2.1877198E0,1.4654173E0,3.3275078E1,1.3909689E0,1.9764717E1,1.0305641E0,9.089088E0,4.5148363E0,5.304589E0,3.651784E0,1.0941509E0,1.1917619E0,1.5553603E0,2.0501183E1,1.8684986E0,2.4917765E0,2.460356E1,8.67152E0],"tree_param":{"num_deleted":"0","num_feature":"100","num_nodes":"79","size_leaf_vector":"1"}},{"base_weights":[-9.994062E-3,-4.8766452E-1,9.017387E-1,9.484825E-1,-8.5207474E-1,9.28976E-1,1.4096157E-1,6.0840745E-2,9.6334016E-1,-1.6464673E-1,-9.474577E-1,1.0183417E0,7.59193E-1,6.130794E-1,-2.6601052E-1,1.0427398E-1,9.7304595E-1,4.0010044E-1,-3.8500226E-1,-6.958353E-1,-1.0029138E0,6.39198E-2,3.0928284E-1,5.352402E-1,9.92711E-1,2.6208598E-2,2.4359806E-1,1.13394335E-1,-1.8602103E-1,3.160691E-1,7.907326E-1,7.677289E-1,-2.4049918E-1,-6.8040913E-1,1.5031918E-3,-2.5304556E-1,-7.984442E-1,-1.0247065E0,-2.8528446E-1,3.203641E-1,2.8499573E-1,2.5114608E-1,1.0485443E0,9.0597343E-1,3.37476E-1,2.8408208E-1,2.0562619E-1,-2.0307627E-2,-7.7759445E-1,-2.5431713E-1,2.2438066E-1,1.9104815E-1,-7.4763954E-1,-5.2112347E-1,-3.2250726E-1,-6.276554E-1,-1.0583911E0,2.0984824E-1,-2.5321656E-1,7.2024935E-1,5.6368336E-2,1.9660656E-1,-1.0336598E-1,2.4228E-2,3.248146E-1,2.9519734E-1,1.4248177E-1,2.4662748E-1,-2.2326164E-1,1.5348298E-2,8.2022175E-2,-4.6247983E-1,-3.1007418E-1,7.310321E-1,-3.6873832E-1,-4.264077E-2,1.0441135E-1,-3.687298E-2,-2.663064E-1,-2.856629E-1,-2.9083306E-1,4.5421344E-1,-3.164125E-1,-3.262236E-1,-6.136594E-1,1.5310866E-1,-7.72355E-2,2.2158545E-2,2.504347E-1,7.387773E-1,-2.9916432E-1,9.2507124E-2,-2.2498831E-1,-1.4829422E-2,-3.227686E-1,2.6817912E-1,2.6275337E-2,-3.3476937E-1,2.0522311E-2,4.188803E-2,-3.0309418E-1,4.771822E-1,-1.7013696E-1,-2.982651E-1,3.215516E-2,2.5831157E-1,7.852574E-2,1.17065206E-1,-3.7664673E-1],"categories":[],"categories_nodes":[],"categories_segments":[],"categories_sizes":[],"default_left":[0,0,0,0,0,0,0,0,0,0,0,0,0,0,0,0,0,0,0,0,0,0,0,0,0,0,0,0,0,0,0,0,0,0,0,0,0,0,0,0,0,0,0,0,0,0,0,0,0,0,0,0,0,0,0,0,0,0,0,0,0,0,0,0,0,0,0,0,0,0,0,0,0,0,0,0,0,0,0,0,0,0,0,0,0,0,0,0,0,0,0,0,0,0,0,0,0,0,0,0,0,0,0,0,0,0,0,0,0],"id":5,"left_children":[1,3,5,7,9,11,13,-1,15,17,19,21,23,25,27,-1,29,31,33,35,37,-1,-1,39,41,-1,-1,-1,-1,-1,43,45,-1,47,49,51,53,55,57,59,-1,61,63,65,67,-1,69,-1,71,-1,73,75,77,79,-1,81,83,85,-1,87,89,-1,-1,-1,-1,-1,-1,-1,91,-1,-1,93,-1,95,97,-1,-1,-1,-1,99,-1,101,-1,-1,103,-1,-1,-1,-1,105,107,-1,-1,-1,-1,-1,-1,-1,-1,-1,-1,-1,-1,-1,-1,-1,-1,-1,-1],"loss_changes":[2.2490857E2,1.781542E2,3.5481567E0,5.697136E-1,1.7600906E1,1.8249664E0,1.5687306E0,0E0,6.484604E-2,4.411058E0,2.6176758E0,8.8899994E-1,2.7622452E0,3.1487453E-1,1.2892385E0,0E0,1.3337326E-1,5.073946E0,2.8687236E0,1.8959141E0,2.7170715E0,0E0,0E0,2.7540064E0,9.6473885E-1,0E0,0E0,0E0,0E0,0E0,9.571533E-1,6.351857E-1,0E0,7.952008E-1,2.4384644E0,2.3725219E0,2.2796097E0,1.8283386E0,2.1296055E0,2.5051289E0,0E0,1.0425032E0,8.143482E-1,1.6094685E-1,1.948441E0,0E0,2.0238131E-2,0E0,5.0558233E-1,0E0,3.334607E0,3.7090075E-1,3.288901E-1,1.8795137E0,0E0,8.34808E0,1.5312042E0,7.693039E-1,0E0,6.4197636E-1,4.008341E0,0E0,0E0,0E0,0E0,0E0,0E0,0E0,1.2945207E0,0E0,0E0,1.7901763E0,0E0,5.334239E-1,1.8281776E0,0E0,0E0,0E0,0E0,4.705795E0,0E0,7.3080387E0,0E0,0E0,3.5986662E0,0E0,0E0,0E0,0E0,1.03280544E-1,7.7253714E0,0E0,0E0,0E0,0E0,0E0,0E0,0E0,0E0,0E0,0E0,0E0,0E0,0E0,0E0,0E0,0E0,0E0,0E0],"parents":[2147483647,0,0,1,1,2,2,3,3,4,4,5,5,6,6,8,8,9,9,10,10,11,11,12,12,13,13,14,14,16,16,17,17,18,18,19,19,20,20,23,23,24,24,30,30,31,31,33,33,34,34,35,35,36,36,37,37,38,38,39,39,41,41,42,42,43,43,44,44,46,46,48,48,50,50,51,51,52,52,53,53,55,55,56,56,57,57,59,59,60,60,68,68,71,71,73,73,74,74,79,79,81,81,84,84,89,89,90,90],"right_children":[2,4,6,8,10,12,14,-1,16,18,20,22,24,26,28,-1,30,32,34,36,38,-1,-1,40,42,-1,-1,-1,-1,-1,44,46,-1,48,50,52,54,56,58,60,-1,62,64,66,68,-1,70,-1,72,-1,74,76,78,80,-1,82,84,86,-1,88,90,-1,-1,-1,-1,-1,-1,-1,92,-1,-1,94,-1,96,98,-1,-1,-1,-1,100,-1,102,-1,-1,104,-1,-1,-1,-1,106,108,-1,-1,-1,-1,-1,-1,-1,-1,-1,-1,-1,-1,-1,-1,-1,-1,-1,-1],"split_conditions":[1E0,1E0,1E0,1E0,1E0,1E0,1E0,6.0840745E-2,1E0,1E0,1E0,1E0,1E0,1E0,1E0,1.0427398E-1,1E0,1E0,1E0,1E0,1E0,6.39198E-2,3.0928284E-1,1E0,1E0,2.6208598E-2,2.4359806E-1,1.13394335E-1,-1.8602103E-1,3.160691E-1,1E0,1E0,-2.4049918E-1,1E0,1E0,1E0,1E0,1E0,1E0,1E0,2.8499573E-1,1E0,1E0,1E0,1E0,2.8408208E-1,1E0,-2.0307627E-2,1E0,-2.5431713E-1,1E0,1E0,1E0,1E0,-3.2250726E-1,1E0,1E0,1E0,-2.5321656E-1,1E0,1E0,1.9660656E-1,-1.0336598E-1,2.4228E-2,3.248146E-1,2.9519734E-1,1.4248177E-1,2.4662748E-1,1E0,1.5348298E-2,8.2022175E-2,1E0,-3.1007418E-1,1E0,1E0,-4.264077E-2,1.0441135E-1,-3.687298E-2,-2.663064E-1,1E0,-2.9083306E-1,1E0,-3.164125E-1,-3.262236E-1,1E0,1.5310866E-1,-7.72355E-2,2.2158545E-2,2.504347E-1,1E0,1E0,9.2507124E-2,-2.2498831E-1,-1.4829422E-2,-3.227686E-1,2.6817912E-1,2.6275337E-2,-3.3476937E-1,2.0522311E-2,4.188803E-2,-3.0309418E-1,4.771822E-1,-1.7013696E-1,-2.982651E-1,3.215516E-2,2.5831157E-1,7.852574E-2,1.17065206E-1,-3.7664673E-1],"split_indices":[0,5,51,1,7,14,39,0,52,42,22,56,63,33,29,0,7,32,54,9,1,0,0,28,18,0,0,0,0,0,22,45,0,8,18,36,42,23,18,22,0,6,27,36,56,0,50,0,29,0,14,11,40,68,0,32,4,21,0,18,27,0,0,0,0,0,0,0,29,0,0,62,0,15,35,0,0,0,0,66,0,19,0,0,11,0,0,0,0,11,33,0,0,0,0,0,0,0,0,0,0,0,0,0,0,0,0,0,0],"split_type":[0,0,0,0,0,0,0,0,0,0,0,0,0,0,0,0,0,0,0,0,0,0,0,0,0,0,0,0,0,0,0,0,0,0,0,0,0,0,0,0,0,0,0,0,0,0,0,0,0,0,0,0,0,0,0,0,0,0,0,0,0,0,0,0,0,0,0,0,0,0,0,0,0,0,0,0,0,0,0,0,0,0,0,0,0,0,0,0,0,0,0,0,0,0,0,0,0,0,0,0,0,0,0,0,0,0,0,0,0],"sum_hessian":[5.1441864E2,3.3786908E2,1.7654956E2,6.805608E1,2.69813E2,1.7023378E2,6.315779E0,1.615717E0,6.644036E1,3.3207993E1,2.3660501E2,1.0825536E2,6.197841E1,2.6894162E0,3.6263633E0,1.6022277E0,6.4838135E1,9.091574E0,2.4116417E1,4.5175777E1,1.9142923E2,1.9438136E0,1.06311554E2,3.3317604E1,2.8660807E1,1.1333191E0,1.556097E0,1.2624875E0,2.3638759E0,4.166025E1,2.3177885E1,7.2384458E0,1.853128E0,1.3238099E1,1.0878319E1,9.151271E0,3.6024506E1,1.8537204E2,6.0571885E0,2.3114578E1,1.0203026E1,2.391786E0,2.626902E1,1.7683128E1,5.494757E0,4.9694357E0,2.26901E0,2.0445437E0,1.1193556E1,1.6786479E0,9.199671E0,5.1451716E0,4.0060997E0,1.942832E1,1.6596186E1,1.6031944E1,1.693401E2,3.5425467E0,2.5146418E0,8.50438E0,1.4610197E1,1.3652546E0,1.0265316E0,1.0105933E0,2.5258427E1,1.388675E1,3.796378E0,2.6974263E0,2.797331E0,1.2271882E0,1.0418218E0,6.2753563E0,4.918199E0,4.8360877E0,4.3635826E0,1.6781653E0,3.4670064E0,1.0774449E0,2.9286547E0,1.3811575E1,5.616745E0,4.519338E0,1.1512606E1,1.5761018E2,1.17299185E1,2.0999486E0,1.4425982E0,1.5276582E0,6.9767222E0,4.6352873E0,9.97491E0,1.5984749E0,1.1988561E0,4.3959146E0,1.8794419E0,3.5484605E0,1.2876275E0,1.0375456E0,3.3260372E0,9.212297E0,4.5992775E0,1.8753477E0,2.6439905E0,7.4287753E0,4.301143E0,3.04885E0,1.5864375E0,6.140439E0,3.8344707E0],"tree_param":{"num_deleted":"0","num_feature":"100","num_nodes":"109","size_leaf_vector":"1"}},{"base_weights":[-1.0306188E-2,-4.4773114E-1,8.280519E-1,8.767064E-1,-7.811532E-1,8.418096E-1,-1.607586E-1,9.608695E-1,6.2234324E-1,-1.5336734E-1,-8.812218E-1,8.802318E-1,3.1065792E-1,4.749195E-1,2.955855E-1,-3.5008293E-2,2.2419916E-1,1.8292522E-1,-5.519036E-1,-6.124686E-1,-9.4695294E-1,9.823726E-1,6.9084495E-1,2.6594013E-1,-1.02014825E-1,2.4433134E-1,1.0034035E-2,4.6463135E-1,-4.5467684E-1,-9.1684364E-2,-9.4969136E-1,-4.2074275E-1,-8.7185794E-1,-9.716989E-1,-2.5064582E-1,4.6642599E-1,2.9971954E-1,2.5217605E-1,7.996222E-1,1.4232428E-1,-4.4119722E-1,6.689881E-1,-4.0524575E-1,1.6901353E-1,-2.709638E-1,-2.51778E-1,2.7630767E-1,-3.247522E-1,-3.3226404E-2,-2.3459946E-1,-2.874296E-1,-8.558348E-2,-2.744127E-1,-1.0201298E0,-6.0587454E-1,2.0429608E-1,-2.4394684E-1,2.112602E-1,1.6137984E-2,-3.6863145E-1,6.0618764E-1,-6.703741E-2,8.477929E-1,-9.495643E-3,-1.9987181E-1,8.974282E-1,1.4156929E-1,-2.6785505E-1,8.8957556E-2,-4.125472E-2,1.2117345E-1,-2.7531406E-1,6.375197E-1,-5.7189214E-1,1.7043121E-1,-5.18069E-1,-3.156904E-1,-1.5345457E-1,-3.0901897E-1,1.5417086E-1,-7.124819E-2,1.869241E-1,-4.233118E-1,2.562988E-1,2.2557251E-1,6.047531E-1,1.000642E0,3.002953E-1,4.888362E-2,1.6691425E-1,-9.3358055E-2,8.3418354E-2,-2.1151774E-1,2.5499392E-1,4.4056635E-2,-2.9193974E-1,5.1093074E-3,1.9639872E-1,-2.4566577E-1,9.8712586E-2,-2.7725866E-1,9.286164E-2,-2.5939363E-1,1.1681508E-1,1.4309857E-2,2.4597497E-1,-7.478134E-2,6.106506E-2,3.1128302E-1],"categories":[],"categories_nodes":[],"categories_segments":[],"categories_sizes":[],"default_left":[0,0,0,0,0,0,0,0,0,0,0,0,0,0,0,0,0,0,0,0,0,0,0,0,0,0,0,0,0,0,0,0,0,0,0,0,0,0,0,0,0,0,0,0,0,0,0,0,0,0,0,0,0,0,0,0,0,0,0,0,0,0,0,0,0,0,0,0,0,0,0,0,0,0,0,0,0,0,0,0,0,0,0,0,0,0,0,0,0,0,0,0,0,0,0,0,0,0,0,0,0,0,0,0,0,0,0,0,0],"id":6,"left_children":[1,3,5,7,9,11,-1,13,15,17,19,21,23,25,-1,-1,-1,27,29,31,33,35,37,-1,39,-1,-1,41,43,45,47,49,51,53,55,57,-1,59,61,-1,63,65,67,69,-1,-1,71,-1,-1,73,-1,-1,-1,75,77,79,-1,-1,-1,81,83,-1,85,-1,-1,87,89,-1,-1,-1,-1,91,93,95,97,99,-1,101,-1,-1,-1,-1,-1,-1,103,105,107,-1,-1,-1,-1,-1,-1,-1,-1,-1,-1,-1,-1,-1,-1,-1,-1,-1,-1,-1,-1,-1,-1],"loss_changes":[1.5371053E2,1.2231043E2,3.1478577E0,5.9791946E-1,1.3720749E1,2.6381836E0,0E0,8.277893E-3,1.6322713E0,4.3273153E0,2.7769012E0,1.8844681E0,2.7445927E0,5.499241E-1,0E0,0E0,0E0,3.418074E0,2.6004748E0,1.6310835E0,2.3557281E0,2.5494385E-1,2.174364E0,0E0,1.6567776E0,0E0,0E0,2.5602458E0,1.8245289E0,2.4087722E0,7.4559164E-1,2.2791085E0,1.447773E-1,1.9567108E0,1.8358585E0,4.0353596E-1,0E0,2.7188926E0,2.1330986E0,0E0,4.562323E-1,1.1747584E0,1.3161123E0,2.9620868E-1,0E0,0E0,1.3820016E0,0E0,0E0,2.818315E0,0E0,0E0,0E0,1.5040894E0,3.5751534E0,7.2477067E-1,0E0,0E0,0E0,5.7847676E0,5.2595425E-1,0E0,8.0182266E-1,0E0,0E0,3.960924E-1,1.0094279E0,0E0,0E0,0E0,0E0,9.3193084E-1,2.8805923E-1,2.638661E0,5.2403855E0,3.610297E0,0E0,3.7540975E0,0E0,0E0,0E0,0E0,0E0,0E0,1.0851844E-1,3.355856E0,4.2892647E-1,0E0,0E0,0E0,0E0,0E0,0E0,0E0,0E0,0E0,0E0,0E0,0E0,0E0,0E0,0E0,0E0,0E0,0E0,0E0,0E0,0E0,0E0],"parents":[2147483647,0,0,1,1,2,2,3,3,4,4,5,5,7,7,8,8,9,9,10,10,11,11,12,12,13,13,17,17,18,18,19,19,20,20,21,21,22,22,24,24,27,27,28,28,29,29,30,30,31,31,32,32,33,33,34,34,35,35,37,37,38,38,40,40,41,41,42,42,43,43,46,46,49,49,53,53,54,54,55,55,59,59,60,60,62,62,65,65,66,66,71,71,72,72,73,73,74,74,75,75,77,77,84,84,85,85,86,86],"right_children":[2,4,6,8,10,12,-1,14,16,18,20,22,24,26,-1,-1,-1,28,30,32,34,36,38,-1,40,-1,-1,42,44,46,48,50,52,54,56,58,-1,60,62,-1,64,66,68,70,-1,-1,72,-1,-1,74,-1,-1,-1,76,78,80,-1,-1,-1,82,84,-1,86,-1,-1,88,90,-1,-1,-1,-1,92,94,96,98,100,-1,102,-1,-1,-1,-1,-1,-1,104,106,108,-1,-1,-1,-1,-1,-1,-1,-1,-1,-1,-1,-1,-1,-1,-1,-1,-1,-1,-1,-1,-1,-1],"split_conditions":[1E0,1E0,1E0,1E0,1E0,1E0,-1.607586E-1,1E0,1E0,1E0,1E0,1E0,1E0,1E0,2.955855E-1,-3.5008293E-2,2.2419916E-1,1E0,1E0,1E0,1E0,1E0,1E0,2.6594013E-1,1E0,2.4433134E-1,1.0034035E-2,1E0,1E0,1E0,1E0,1E0,1E0,1E0,1E0,1E0,2.9971954E-1,1E0,1E0,1.4232428E-1,1E0,1E0,1E0,1E0,-2.709638E-1,-2.51778E-1,1E0,-3.247522E-1,-3.3226404E-2,1E0,-2.874296E-1,-8.558348E-2,-2.744127E-1,1E0,1E0,1E0,-2.4394684E-1,2.112602E-1,1.6137984E-2,1E0,1E0,-6.703741E-2,1E0,-9.495643E-3,-1.9987181E-1,1E0,1E0,-2.6785505E-1,8.8957556E-2,-4.125472E-2,1.2117345E-1,1E0,1E0,1E0,1E0,1E0,-3.156904E-1,1E0,-3.0901897E-1,1.5417086E-1,-7.124819E-2,1.869241E-1,-4.233118E-1,2.562988E-1,1E0,1E0,1E0,3.002953E-1,4.888362E-2,1.6691425E-1,-9.3358055E-2,8.3418354E-2,-2.1151774E-1,2.5499392E-1,4.4056635E-2,-2.9193974E-1,5.1093074E-3,1.9639872E-1,-2.4566577E-1,9.8712586E-2,-2.7725866E-1,9.286164E-2,-2.5939363E-1,1.1681508E-1,1.4309857E-2,2.4597497E-1,-7.478134E-2,6.106506E-2,3.1128302E-1],"split_indices":[0,5,66,36,7,60,0,52,31,46,22,14,7,18,0,0,0,44,27,19,1,42,18,0,9,0,0,97,29,18,53,53,23,11,34,39,0,25,81,0,73,45,29,19,0,0,47,0,0,62,0,0,0,87,6,21,0,0,0,31,11,0,50,0,0,49,35,0,0,0,0,23,38,11,42,68,0,12,0,0,0,0,0,0,27,25,27,0,0,0,0,0,0,0,0,0,0,0,0,0,0,0,0,0,0,0,0,0,0],"split_type":[0,0,0,0,0,0,0,0,0,0,0,0,0,0,0,0,0,0,0,0,0,0,0,0,0,0,0,0,0,0,0,0,0,0,0,0,0,0,0,0,0,0,0,0,0,0,0,0,0,0,0,0,0,0,0,0,0,0,0,0,0,0,0,0,0,0,0,0,0,0,0,0,0,0,0,0,0,0,0,0,0,0,0,0,0,0,0,0,0,0,0,0,0,0,0,0,0,0,0,0,0,0,0,0,0,0,0,0,0],"sum_hessian":[4.1714E2,2.7442233E2,1.427177E2,5.486301E1,2.1955931E2,1.4167146E2,1.0462265E0,3.9136177E1,1.5726835E1,3.0534159E1,1.8902515E2,1.3150174E2,1.0169731E1,2.850637E0,3.6285538E1,2.2845953E0,1.344224E1,1.6853695E1,1.3680465E1,3.917386E1,1.4985129E2,8.2708176E1,4.8793564E1,3.766358E0,6.403373E0,1.1338328E0,1.716804E0,1.1877324E1,4.976371E0,6.9129896E0,6.767475E0,2.4032475E1,1.5141385E1,1.4432658E2,5.5247054E0,3.499043E0,7.920913E1,1.035459E1,3.8438972E1,2.2243924E0,4.1789804E0,9.804849E0,2.0724745E0,2.3424184E0,2.6339524E0,1.8579395E0,5.0550504E0,5.591868E0,1.1756073E0,1.8916328E1,5.1161475E0,1.5521221E0,1.3589263E1,1.2587376E2,1.8452831E1,3.4064672E0,2.118238E0,1.7715846E0,1.7274584E0,3.7453358E0,6.6092544E0,1.5648496E0,3.6874123E1,1.8864877E0,2.2924926E0,6.352049E0,3.4528005E0,1.0621736E0,1.0103009E0,1.1961192E0,1.1462991E0,2.0944045E0,2.960646E0,1.0096451E1,8.819877E0,8.6100855E0,1.1726367E2,9.58823E0,8.864601E0,1.9068893E0,1.499578E0,2.125487E0,1.6198488E0,3.247468E0,3.3617861E0,1.615043E1,2.0723694E1,5.2491226E0,1.1029263E0,1.6824858E0,1.7703146E0,1.0698018E0,1.0246027E0,1.5550138E0,1.4056321E0,5.617078E0,4.479373E0,6.1486344E0,2.6712422E0,2.851709E0,5.758377E0,6.1495576E0,3.4386725E0,1.1310459E0,2.2307403E0,1.2932216E1,3.2182148E0,1.2069088E0,1.9516785E1],"tree_param":{"num_deleted":"0","num_feature":"100","num_nodes":"109","size_leaf_vector":"1"}},{"base_weights":[-1.2209521E-2,-4.1238898E-1,7.5694036E-1,8.031691E-1,-7.167516E-1,7.921931E-1,3.8631946E-2,9.21355E-1,5.4650754E-1,-1.3761123E-1,-8.1899095E-1,3.1467777E-1,6.9289654E-1,4.569031E-1,-2.7583382E-1,4.1284332E-1,2.8734982E-1,7.4606895E-1,-1.1109863E-2,1.49391E-1,-4.8129764E-1,-7.092574E-1,-3.1503823E-1,7.514621E-1,-8.8654585E-2,8.164826E-3,1.9511342E-1,6.7770384E-2,-5.061421E-1,-4.8491973E-3,2.0173013E-1,2.558868E-1,8.661686E-2,2.0509176E-1,-5.2896684E-1,3.91396E-1,-3.9135498E-1,-8.286196E-2,-8.451592E-1,7.14875E-1,-7.766182E-1,8.6596334E-1,5.8647496E-1,1.9389717E-1,-3.3553803E-1,-1.8575509E-1,-4.81162E-2,4.561771E-2,-2.800808E-1,5.8018094E-1,-1.06867105E-1,1.4483781E-1,-2.4640065E-1,-2.2722961E-1,2.3496827E-1,-2.965295E-1,-2.7768144E-2,4.16228E-1,-1.953593E-1,-4.8052496E-1,-8.792695E-1,5.5984188E-2,8.8072E-1,9.300964E-1,3.4415755E-1,8.171767E-2,-6.2031543E-1,2.1937227E-1,-1.5317323E-2,1.253162E-1,-4.7688596E-2,-7.35679E-2,5.547712E-1,-1.7639452E-1,-7.760403E-1,-9.2651737E-1,-1.1285278E-1,2.7820816E-2,2.698547E-1,2.9812258E-1,7.0551395E-2,-3.0728155E-1,4.7056243E-1,-2.6369637E-2,-2.502657E-1,2.2735922E-1,3.6538087E-2,7.558492E-2,-1.6137187E-1,-3.1137496E-1,-1.478551E-1,-2.9564318E-1,-1.0146195E-1,9.0159625E-2,-2.0777181E-1,1.7905873E-1,-2.3175828E-1],"categories":[],"categories_nodes":[],"categories_segments":[],"categories_sizes":[],"default_left":[0,0,0,0,0,0,0,0,0,0,0,0,0,0,0,0,0,0,0,0,0,0,0,0,0,0,0,0,0,0,0,0,0,0,0,0,0,0,0,0,0,0,0,0,0,0,0,0,0,0,0,0,0,0,0,0,0,0,0,0,0,0,0,0,0,0,0,0,0,0,0,0,0,0,0,0,0,0,0,0,0,0,0,0,0,0,0,0,0,0,0,0,0,0,0,0,0],"id":7,"left_children":[1,3,5,7,9,11,13,15,17,19,21,-1,23,25,27,29,-1,31,33,35,37,39,-1,41,43,-1,-1,-1,45,-1,-1,-1,-1,-1,47,49,51,53,55,57,59,61,63,-1,65,-1,-1,-1,-1,67,-1,69,-1,-1,71,-1,-1,-1,-1,73,75,-1,77,79,81,-1,83,-1,-1,-1,-1,-1,85,87,89,91,93,-1,-1,-1,-1,-1,95,-1,-1,-1,-1,-1,-1,-1,-1,-1,-1,-1,-1,-1,-1],"loss_changes":[1.051809E2,8.372792E1,2.9309158E0,8.7600136E-1,1.0561592E1,2.1138535E0,9.8394537E-1,1.5513611E-1,1.8774219E0,2.8586302E0,3.136383E0,0E0,3.8793564E0,2.4630475E-1,6.1662894E-1,4.2784524E-1,0E0,3.591423E-1,2.3088584E0,2.2677479E0,1.828162E0,1.0804684E1,0E0,9.5803833E-1,1.4328452E0,0E0,0E0,0E0,2.9195487E-2,0E0,0E0,0E0,0E0,0E0,1.1518309E0,1.8527563E0,1.3860389E0,1.7556003E0,6.347041E-1,5.8152137E0,2.6927986E0,2.7382278E-1,2.5849066E0,0E0,1.1513772E0,0E0,0E0,0E0,0E0,9.615092E-1,0E0,3.396399E-1,0E0,0E0,1.0213602E0,0E0,0E0,0E0,0E0,2.432773E0,2.6078835E0,0E0,5.4618835E-1,3.784685E-1,4.295688E0,0E0,4.0151846E-1,0E0,0E0,0E0,0E0,0E0,2.3894155E-1,2.5178378E0,5.420599E-1,2.10923E0,1.523395E0,0E0,0E0,0E0,0E0,0E0,3.737482E0,0E0,0E0,0E0,0E0,0E0,0E0,0E0,0E0,0E0,0E0,0E0,0E0,0E0,0E0],"parents":[2147483647,0,0,1,1,2,2,3,3,4,4,5,5,6,6,7,7,8,8,9,9,10,10,12,12,13,13,14,14,15,15,17,17,18,18,19,19,20,20,21,21,23,23,24,24,28,28,34,34,35,35,36,36,37,37,38,38,39,39,40,40,41,41,42,42,44,44,49,49,51,51,54,54,59,59,60,60,62,62,63,63,64,64,66,66,72,72,73,73,74,74,75,75,76,76,82,82],"right_children":[2,4,6,8,10,12,14,16,18,20,22,-1,24,26,28,30,-1,32,34,36,38,40,-1,42,44,-1,-1,-1,46,-1,-1,-1,-1,-1,48,50,52,54,56,58,60,62,64,-1,66,-1,-1,-1,-1,68,-1,70,-1,-1,72,-1,-1,-1,-1,74,76,-1,78,80,82,-1,84,-1,-1,-1,-1,-1,86,88,90,92,94,-1,-1,-1,-1,-1,96,-1,-1,-1,-1,-1,-1,-1,-1,-1,-1,-1,-1,-1,-1],"split_conditions":[1E0,1E0,1E0,1E0,1E0,1E0,1E0,1E0,1E0,1E0,1E0,3.1467777E-1,1E0,1E0,1E0,1E0,2.8734982E-1,1E0,1E0,1E0,1E0,1E0,-3.1503823E-1,1E0,1E0,8.164826E-3,1.9511342E-1,6.7770384E-2,1E0,-4.8491973E-3,2.0173013E-1,2.558868E-1,8.661686E-2,2.0509176E-1,1E0,1E0,1E0,1E0,1E0,1E0,1E0,1E0,1E0,1.9389717E-1,1E0,-1.8575509E-1,-4.81162E-2,4.561771E-2,-2.800808E-1,1E0,-1.06867105E-1,1E0,-2.4640065E-1,-2.2722961E-1,1E0,-2.965295E-1,-2.7768144E-2,4.16228E-1,-1.953593E-1,1E0,1E0,5.5984188E-2,1E0,1E0,1E0,8.171767E-2,1E0,2.1937227E-1,-1.5317323E-2,1.253162E-1,-4.7688596E-2,-7.35679E-2,1E0,1E0,1E0,1E0,1E0,2.7820816E-2,2.698547E-1,2.9812258E-1,7.0551395E-2,-3.0728155E-1,1E0,-2.6369637E-2,-2.502657E-1,2.2735922E-1,3.6538087E-2,7.558492E-2,-1.6137187E-1,-3.1137496E-1,-1.478551E-1,-2.9564318E-1,-1.0146195E-1,9.0159625E-2,-2.0777181E-1,1.7905873E-1,-2.3175828E-1],"split_indices":[0,5,51,7,7,7,39,52,22,46,32,0,60,33,29,29,0,36,56,44,27,23,0,14,27,0,0,0,46,0,0,0,0,0,29,97,29,18,53,15,22,23,31,0,9,0,0,0,0,81,0,38,0,0,47,0,0,0,0,41,1,0,42,4,15,0,73,0,0,0,0,0,38,36,37,4,18,0,0,0,0,0,12,0,0,0,0,0,0,0,0,0,0,0,0,0,0],"split_type":[0,0,0,0,0,0,0,0,0,0,0,0,0,0,0,0,0,0,0,0,0,0,0,0,0,0,0,0,0,0,0,0,0,0,0,0,0,0,0,0,0,0,0,0,0,0,0,0,0,0,0,0,0,0,0,0,0,0,0,0,0,0,0,0,0,0,0,0,0,0,0,0,0,0,0,0,0,0,0,0,0,0,0,0,0,0,0,0,0,0,0,0,0,0,0,0,0],"sum_hessian":[3.397064E2,2.237538E2,1.1595258E2,4.4478294E1,1.7927551E2,1.1043009E2,5.522491E0,2.8681467E1,1.579683E1,2.725186E1,1.5202365E2,2.813168E1,8.2298416E1,2.1756744E0,3.3468165E0,2.7441883E0,2.5937279E1,1.1384543E1,4.4122863E0,1.5158651E1,1.2093208E1,1.058427E2,4.618095E1,7.659711E1,5.7013073E0,1.0296352E0,1.1460392E0,1.0589625E0,2.2878542E0,1.3880259E0,1.3561625E0,8.526737E0,2.8578064E0,1.7476007E0,2.6646857E0,1.0662816E1,4.4958353E0,6.358382E0,5.734826E0,4.3460693E0,1.0149663E2,4.270861E1,3.3888496E1,1.0267411E0,4.6745663E0,1.128186E0,1.1596681E0,1.2257999E0,1.4388858E0,8.691937E0,1.9708792E0,2.295928E0,2.1999073E0,1.5933936E0,4.7649884E0,4.5544386E0,1.1803879E0,2.901806E0,1.444263E0,2.7591442E1,7.390519E1,1.1981013E0,4.151051E1,1.2840921E1,2.1047577E1,1.5050796E0,3.1694868E0,6.885714E0,1.8062232E0,1.0119631E0,1.2839649E0,1.9980484E0,2.76694E0,1.43845005E1,1.3206942E1,6.941689E1,4.4882913E0,1.1053137E0,4.0405193E1,1.1369624E1,1.4712977E0,1.1791604E0,1.9868416E1,1.3127967E0,1.85669E0,1.372704E0,1.3942361E0,6.7223997E0,7.662101E0,5.477036E0,7.7299056E0,6.2480114E1,6.9367814E0,2.9011436E0,1.5871475E0,1.8507845E1,1.3605721E0],"tree_param":{"num_deleted":"0","num_feature":"100","num_nodes":"97","size_leaf_vector":"1"}},{"base_weights":[-1.23422425E-2,-3.7170303E-1,6.8159467E-1,7.345143E-1,-6.472675E-1,3.0230775E-1,5.686968E-1,8.473446E-1,4.3881106E-1,-1.2589256E-1,-7.501192E-1,6.176831E-1,-1.4752023E-1,3.6462364E-1,2.6531342E-1,-5.777795E-2,5.8211905E-1,-1.8979399E-2,-2.5072902E-1,-6.315603E-1,-3.073162E-1,6.5465236E-1,-2.3169687E-2,1.1718239E-1,-1.5682733E-1,2.171429E-1,-2.1321833E-2,3.27407E-2,6.2958765E-1,4.6366882E-1,-1.9895719E-1,5.157071E-1,-6.975526E-1,7.662031E-1,4.986753E-1,2.666115E-1,-1.3817658E-1,2.6318237E-1,1.703839E-1,7.206716E-1,-3.388589E-2,1.9947582E-1,-3.542654E-1,1.0178869E0,-1.8636686E-1,-5.288464E-1,-9.3361014E-1,-2.8579435E-4,7.9958564E-1,8.799006E-1,2.5761566E-1,-4.8481014E-2,1.5163417E-1,-8.8104956E-2,1.934963E-1,5.5893112E-2,2.6309723E-1,1.6240722E-1,-1.8995157E-1,-2.0386134E-1,5.6371975E-1,7.8842826E-2,-5.646885E-1,4.1018742E-1,1.3287234E-1,3.483019E-1,-6.165427E-1,-5.6749535E-1,-3.0298656E-1,5.4098308E-2,2.4552518E-1,2.8633288E-1,6.0461223E-2,-2.6533008E-1,3.7298608E-1,2.8243688E-1,2.3849327E-2,-4.992606E-2,9.347455E-2,-6.642069E-2,-2.8291413E-1,3.9435545E-1,-2.1640633E-1,-1.063265E-1,-2.5019714E-1,4.196619E-3,-2.3418598E-1,1.4637023E-1,-1.9520462E-1],"categories":[],"categories_nodes":[],"categories_segments":[],"categories_sizes":[],"default_left":[0,0,0,0,0,0,0,0,0,0,0,0,0,0,0,0,0,0,0,0,0,0,0,0,0,0,0,0,0,0,0,0,0,0,0,0,0,0,0,0,0,0,0,0,0,0,0,0,0,0,0,0,0,0,0,0,0,0,0,0,0,0,0,0,0,0,0,0,0,0,0,0,0,0,0,0,0,0,0,0,0,0,0,0,0,0,0,0,0],"id":8,"left_children":[1,3,5,7,9,-1,11,13,15,17,19,21,23,25,-1,-1,27,29,-1,31,-1,33,35,-1,-1,-1,-1,-1,37,39,41,43,45,47,49,51,-1,-1,53,55,57,59,61,63,-1,65,67,-1,69,71,73,-1,-1,-1,-1,-1,-1,-1,-1,-1,75,77,79,-1,-1,81,83,85,-1,-1,-1,-1,-1,-1,87,-1,-1,-1,-1,-1,-1,-1,-1,-1,-1,-1,-1,-1,-1],"loss_changes":[7.033114E1,5.7109478E1,2.969658E0,8.799782E-1,7.909912E0,0E0,2.6795673E0,1.4381409E-1,1.2374156E0,1.9419067E0,3.4004593E0,1.6557484E0,1.3208863E0,6.08567E-1,0E0,0E0,1.6443849E-1,2.128613E0,0E0,7.1367836E0,0E0,7.5763893E-1,7.23951E-1,0E0,0E0,0E0,0E0,0E0,9.000616E-1,8.770217E-1,1.1705844E0,3.7404046E0,2.8940697E0,9.3107986E-1,2.5465393E0,4.3821633E-1,0E0,0E0,1.174874E0,2.0760989E-1,1.454912E0,2.1841004E0,1.2429492E0,2.2914267E-1,0E0,4.2084446E0,3.8138962E-1,0E0,2.5839233E-1,3.7783337E-1,2.952029E0,0E0,0E0,0E0,0E0,0E0,0E0,0E0,0E0,0E0,7.525772E-1,3.4738314E-1,9.56619E-1,0E0,0E0,6.4857874E0,2.4152508E0,1.0240483E0,0E0,0E0,0E0,0E0,0E0,0E0,2.526473E0,0E0,0E0,0E0,0E0,0E0,0E0,0E0,0E0,0E0,0E0,0E0,0E0,0E0,0E0],"parents":[2147483647,0,0,1,1,2,2,3,3,4,4,6,6,7,7,8,8,9,9,10,10,11,11,12,12,13,13,16,16,17,17,19,19,21,21,22,22,28,28,29,29,30,30,31,31,32,32,33,33,34,34,35,35,38,38,39,39,40,40,41,41,42,42,43,43,45,45,46,46,48,48,49,49,50,50,60,60,61,61,62,62,65,65,66,66,67,67,74,74],"right_children":[2,4,6,8,10,-1,12,14,16,18,20,22,24,26,-1,-1,28,30,-1,32,-1,34,36,-1,-1,-1,-1,-1,38,40,42,44,46,48,50,52,-1,-1,54,56,58,60,62,64,-1,66,68,-1,70,72,74,-1,-1,-1,-1,-1,-1,-1,-1,-1,76,78,80,-1,-1,82,84,86,-1,-1,-1,-1,-1,-1,88,-1,-1,-1,-1,-1,-1,-1,-1,-1,-1,-1,-1,-1,-1],"split_conditions":[1E0,1E0,1E0,1E0,1E0,3.0230775E-1,1E0,1E0,1E0,1E0,1E0,1E0,1E0,1E0,2.6531342E-1,-5.777795E-2,1E0,1E0,-2.5072902E-1,1E0,-3.073162E-1,1E0,1E0,1.1718239E-1,-1.5682733E-1,2.171429E-1,-2.1321833E-2,3.27407E-2,1E0,1E0,1E0,1E0,1E0,1E0,1E0,1E0,-1.3817658E-1,2.6318237E-1,1E0,1E0,1E0,1E0,1E0,1E0,-1.8636686E-1,1E0,1E0,-2.8579435E-4,1E0,1E0,1E0,-4.8481014E-2,1.5163417E-1,-8.8104956E-2,1.934963E-1,5.5893112E-2,2.6309723E-1,1.6240722E-1,-1.8995157E-1,-2.0386134E-1,1E0,1E0,1E0,4.1018742E-1,1.3287234E-1,1E0,1E0,1E0,-3.0298656E-1,5.4098308E-2,2.4552518E-1,2.8633288E-1,6.0461223E-2,-2.6533008E-1,1E0,2.8243688E-1,2.3849327E-2,-4.992606E-2,9.347455E-2,-6.642069E-2,-2.8291413E-1,3.9435545E-1,-2.1640633E-1,-1.063265E-1,-2.5019714E-1,4.196619E-3,-2.3418598E-1,1.4637023E-1,-1.9520462E-1],"split_indices":[0,5,7,36,7,0,73,52,31,82,32,51,27,18,0,0,27,42,0,23,0,14,31,0,0,0,0,0,29,45,8,73,38,56,31,27,0,0,23,39,76,17,49,83,0,70,22,0,42,4,15,0,0,0,0,0,0,0,0,0,46,29,27,0,0,15,9,18,0,0,0,0,0,0,12,0,0,0,0,0,0,0,0,0,0,0,0,0,0],"split_type":[0,0,0,0,0,0,0,0,0,0,0,0,0,0,0,0,0,0,0,0,0,0,0,0,0,0,0,0,0,0,0,0,0,0,0,0,0,0,0,0,0,0,0,0,0,0,0,0,0,0,0,0,0,0,0,0,0,0,0,0,0,0,0,0,0,0,0,0,0,0,0,0,0,0,0,0,0,0,0,0,0,0,0,0,0,0,0,0,0],"sum_hessian":[2.8001514E2,1.8478639E2,9.522875E1,3.6519238E1,1.4826715E2,2.2451998E1,7.277676E1,2.5082926E1,1.1436312E1,2.4795916E1,1.2347123E2,6.8246544E1,4.530211E0,2.5599866E0,2.252294E1,2.0518975E0,9.384415E0,2.2442589E1,2.3533268E0,8.851237E1,3.4958862E1,6.450394E1,3.7426078E0,1.8443158E0,2.6858952E0,1.0407374E0,1.5192493E0,1.1568192E0,8.227595E0,5.667566E0,1.6775023E1,4.443747E0,8.406862E1,3.5326836E1,2.9177101E1,2.4861038E0,1.2565042E0,4.753312E0,3.4742832E0,3.4414968E0,2.226069E0,4.6251407E0,1.2149882E1,3.1549275E0,1.2888198E0,5.0918427E1,3.3150192E1,1.5136433E0,3.381319E1,1.0275968E1,1.8901133E1,1.0059248E0,1.4801788E0,1.9493823E0,1.5249008E0,1.2749766E0,2.1665204E0,1.1851392E0,1.0409299E0,1.1014497E0,3.5236912E0,4.177258E0,7.9726243E0,1.1052823E0,2.0496452E0,4.3579583E0,4.656047E1,7.1751E0,2.5975092E1,1.3100299E0,3.2503162E1,8.891897E0,1.3840702E0,1.1225915E0,1.7778542E1,1.4490426E0,2.0746486E0,2.1726468E0,2.004611E0,5.011152E0,2.9614725E0,2.1694167E0,2.1885417E0,2.230408E1,2.4256392E1,2.1750655E0,5.0000343E0,1.6454748E1,1.323793E0],"tree_param":{"num_deleted":"0","num_feature":"100","num_nodes":"89","size_leaf_vector":"1"}},{"base_weights":[-9.881956E-3,-3.2418266E-1,6.019415E-1,6.625629E-1,-5.684667E-1,2.904699E-1,4.8700914E-1,8.1628245E-1,3.712151E-1,-1.03810176E-1,-6.7105377E-1,5.4203826E-1,-6.873811E-2,3.584143E-1,2.7606028E-1,6.048724E-1,-1.4966443E-1,2.4280723E-2,-6.1424035E-1,-5.4437095E-1,-3.0056012E-1,5.913836E-1,-1.3980728E-1,1.0581427E-1,-2.9870287E-1,1.9570619E-1,-1.2335142E-1,2.1597438E-1,7.187814E-2,1.6887763E-1,-5.3738415E-1,-2.0867686E-1,1.24481186E-1,-2.5056472E-1,4.859072E-3,4.2890266E-1,-6.0864544E-1,7.3455495E-1,4.1256997E-1,1.0304357E-1,-1.6204186E-1,-1.4181007E-1,1.7617194E-3,-3.0435333E-2,-2.4282822E-1,5.715806E-1,-5.9932988E-2,8.7284887E-1,-1.8078013E-1,-2.554153E-1,-7.3981357E-1,3.463276E-1,2.3892628E-1,8.2346046E-1,1.8504933E-1,2.6411787E-1,-1.6444976E-2,1.3026877E-1,-5.237724E-1,2.9762968E-1,8.540863E-2,-1.7889185E-2,-2.8305647E-1,-3.043064E-1,-2.9784954E-1,-1.4562874E-1,2.3610757E-1,2.733425E-1,5.1750615E-2,7.0352006E-1,-4.6150614E-2,1.7319128E-1,-8.002925E-2,-2.791564E-1,1.004998E-1,8.547428E-2,-2.605581E-1,8.393186E-2,-1.3533792E-1,5.6991357E-2,2.4378265E-1,1.9287518E-1,-8.437728E-2],"categories":[],"categories_nodes":[],"categories_segments":[],"categories_sizes":[],"default_left":[0,0,0,0,0,0,0,0,0,0,0,0,0,0,0,0,0,0,0,0,0,0,0,0,0,0,0,0,0,0,0,0,0,0,0,0,0,0,0,0,0,0,0,0,0,0,0,0,0,0,0,0,0,0,0,0,0,0,0,0,0,0,0,0,0,0,0,0,0,0,0,0,0,0,0,0,0,0,0,0,0,0,0],"id":9,"left_children":[1,3,5,7,9,-1,11,13,15,17,19,21,23,25,-1,27,29,31,33,35,-1,37,39,-1,41,-1,-1,-1,-1,-1,43,-1,45,-1,-1,47,49,51,53,-1,-1,-1,-1,-1,-1,55,57,59,-1,61,63,65,-1,67,69,-1,-1,71,73,-1,-1,75,-1,-1,77,-1,-1,-1,-1,79,81,-1,-1,-1,-1,-1,-1,-1,-1,-1,-1,-1,-1],"loss_changes":[4.567963E1,3.8199276E1,2.9225826E0,1.1121655E0,5.951317E0,0E0,1.975544E0,6.147175E-1,1.6420331E0,1.5858129E0,3.7831154E0,2.0267906E0,7.448054E-1,1.4694145E0,0E0,2.0565486E-1,1.6146595E0,1.5413873E0,6.90289E-1,5.0700684E0,0E0,1.0812778E0,1.0964555E0,0E0,2.5768602E-1,0E0,0E0,0E0,0E0,0E0,3.4331703E-1,0E0,1.5639496E0,0E0,0E0,2.975403E0,3.171341E0,4.1465282E-1,2.3086572E0,0E0,0E0,0E0,0E0,0E0,0E0,1.114619E0,1.306884E0,8.475304E-3,0E0,3.442594E0,6.051037E0,2.479071E0,0E0,3.6177158E-1,2.2180796E0,0E0,0E0,2.0633929E0,1.8074983E0,0E0,0E0,4.5629067E0,0E0,0E0,2.027804E0,0E0,0E0,0E0,0E0,1.6409779E-1,2.3757339E0,0E0,0E0,0E0,0E0,0E0,0E0,0E0,0E0,0E0,0E0,0E0,0E0],"parents":[2147483647,0,0,1,1,2,2,3,3,4,4,6,6,7,7,8,8,9,9,10,10,11,11,12,12,13,13,15,15,16,16,17,17,18,18,19,19,21,21,22,22,24,24,30,30,32,32,35,35,36,36,37,37,38,38,45,45,46,46,47,47,49,49,50,50,51,51,53,53,54,54,57,57,58,58,61,61,64,64,69,69,70,70],"right_children":[2,4,6,8,10,-1,12,14,16,18,20,22,24,26,-1,28,30,32,34,36,-1,38,40,-1,42,-1,-1,-1,-1,-1,44,-1,46,-1,-1,48,50,52,54,-1,-1,-1,-1,-1,-1,56,58,60,-1,62,64,66,-1,68,70,-1,-1,72,74,-1,-1,76,-1,-1,78,-1,-1,-1,-1,80,82,-1,-1,-1,-1,-1,-1,-1,-1,-1,-1,-1,-1],"split_conditions":[1E0,1E0,1E0,1E0,1E0,2.904699E-1,1E0,1E0,1E0,1E0,1E0,1E0,1E0,1E0,2.7606028E-1,1E0,1E0,1E0,1E0,1E0,-3.0056012E-1,1E0,1E0,1.0581427E-1,1E0,1.9570619E-1,-1.2335142E-1,2.1597438E-1,7.187814E-2,1.6887763E-1,1E0,-2.0867686E-1,1E0,-2.5056472E-1,4.859072E-3,1E0,1E0,1E0,1E0,1.0304357E-1,-1.6204186E-1,-1.4181007E-1,1.7617194E-3,-3.0435333E-2,-2.4282822E-1,1E0,1E0,1E0,-1.8078013E-1,1E0,1E0,1E0,2.3892628E-1,1E0,1E0,2.6411787E-1,-1.6444976E-2,1E0,1E0,2.9762968E-1,8.540863E-2,1E0,-2.8305647E-1,-3.043064E-1,1E0,-1.4562874E-1,2.3610757E-1,2.733425E-1,5.1750615E-2,1E0,1E0,1.7319128E-1,-8.002925E-2,-2.791564E-1,1.004998E-1,8.547428E-2,-2.605581E-1,8.393186E-2,-1.3533792E-1,5.6991357E-2,2.4378265E-1,1.9287518E-1,-8.437728E-2],"split_indices":[0,5,7,7,7,0,60,42,22,48,32,51,9,23,0,36,56,9,4,23,0,14,39,0,11,0,0,0,0,0,23,0,42,0,0,37,42,22,31,0,0,0,0,0,0,27,62,19,0,48,13,11,0,4,3,0,0,14,51,0,0,66,0,0,46,0,0,0,0,4,33,0,0,0,0,0,0,0,0,0,0,0,0],"split_type":[0,0,0,0,0,0,0,0,0,0,0,0,0,0,0,0,0,0,0,0,0,0,0,0,0,0,0,0,0,0,0,0,0,0,0,0,0,0,0,0,0,0,0,0,0,0,0,0,0,0,0,0,0,0,0,0,0,0,0,0,0,0,0,0,0,0,0,0,0,0,0,0,0,0,0,0,0,0,0,0,0,0,0],"sum_hessian":[2.3553307E2,1.559103E2,7.9622765E1,3.0598873E1,1.25311424E2,1.7243399E1,6.237936E1,1.8851034E1,1.1747839E1,2.3026672E1,1.0228476E2,5.6781612E1,5.5977507E0,4.3100047E0,1.454103E1,7.99857E0,3.7492685E0,1.916876E1,3.8579109E0,7.587461E1,2.6410141E1,5.3073357E1,3.708255E0,1.7876962E0,3.8100543E0,3.2290246E0,1.08098E0,5.344493E0,2.654077E0,1.1619091E0,2.5873594E0,1.6161164E0,1.7552645E1,2.616114E0,1.2417969E0,4.348882E0,7.1525734E1,2.7748175E1,2.5325182E1,1.7444048E0,1.9638503E0,2.0735066E0,1.7365478E0,1.5217572E0,1.0656023E0,4.5126343E0,1.30400095E1,3.1478815E0,1.2010008E0,2.016621E1,5.135952E1,4.7209325E0,2.3027243E1,8.092061E0,1.7233122E1,2.750941E0,1.7616935E0,9.757858E0,3.2821512E0,2.0462043E0,1.1016772E0,1.5754086E1,4.412125E0,3.0881386E1,2.0478136E1,1.5998785E0,3.1210542E0,6.7792363E0,1.3128242E0,4.6846924E0,1.2548429E1,4.3763275E0,5.381531E0,2.1705449E0,1.1116062E0,1.2108761E1,3.6453247E0,4.1213994E0,1.6356737E1,1.3010895E0,3.3836026E0,2.7510087E0,9.79742E0],"tree_param":{"num_deleted":"0","num_feature":"100","num_nodes":"83","size_leaf_vector":"1"}},{"base_weights":[-6.7487876E-3,-2.847291E-1,5.320185E-1,5.8809E-1,-4.994758E-1,9.256187E-1,4.218046E-1,7.4958485E-1,3.123965E-1,-3.763926E-1,-8.7057E-1,8.222829E-2,2.89581E-1,4.7079873E-1,-1.4174749E-1,2.9218757E-1,2.622184E-1,5.351038E-1,-1.1764416E-1,-2.4448652E-2,-5.2653784E-1,-3.6317617E-1,-2.941509E-1,5.054741E-1,9.866591E-3,9.433564E-2,-1.2697604E-1,1.7233388E-1,-9.7206436E-2,1.9656405E-1,5.9238013E-2,7.181188E-2,-1.0482512E-1,1.9100101E-1,-2.752099E-1,-3.2573217E-1,-2.9301295E-1,-2.4103566E-1,1.4461978E-1,7.118963E-1,3.8638324E-1,2.3829065E-1,-1.0263509E-1,4.565117E-1,-6.245644E-1,4.290129E-1,-3.8977888E-1,-5.181957E-2,1.3052881E-1,7.5256366E-1,2.8035866E-2,4.442479E-1,-1.6431123E-1,-2.916027E-2,1.3306116E-1,1.3586806E0,-3.4800433E-2,7.385239E-2,-2.6315698E-1,2.9543304E-1,-1.6334477E-1,-6.525856E-1,-1.7989679E-1,3.1223306E-1,2.5058073E-1,-2.0162788E-1,5.094161E-1,4.638214E-1,1.0441022E-1,1.01346545E-1,-2.3876709E-1,-5.7347625E-2,-2.8263134E-1,8.558427E-2,-9.587517E-2,-1.1235918E-1,2.1004342E-1,9.086526E-2,-2.2410212E-1,2.4436268E-1,1.13523014E-1],"categories":[],"categories_nodes":[],"categories_segments":[],"categories_sizes":[],"default_left":[0,0,0,0,0,0,0,0,0,0,0,0,0,0,0,0,0,0,0,0,0,0,0,0,0,0,0,0,0,0,0,0,0,0,0,0,0,0,0,0,0,0,0,0,0,0,0,0,0,0,0,0,0,0,0,0,0,0,0,0,0,0,0,0,0,0,0,0,0,0,0,0,0,0,0,0,0,0,0,0,0],"id":10,"left_children":[1,3,5,7,9,11,13,15,17,19,21,-1,-1,23,25,27,-1,29,31,33,35,37,-1,39,41,-1,-1,-1,-1,-1,-1,-1,-1,43,-1,45,-1,-1,47,49,51,53,-1,55,57,59,61,-1,-1,63,-1,65,-1,-1,-1,67,69,-1,-1,-1,-1,71,73,75,-1,77,79,-1,-1,-1,-1,-1,-1,-1,-1,-1,-1,-1,-1,-1,-1],"loss_changes":[3.0474073E1,2.5448967E1,2.6139889E0,9.661474E-1,4.6166153E0,1.0519695E-1,1.6113977E0,6.718693E-1,1.1809326E0,4.375656E0,1.1052876E0,0E0,0E0,8.2134914E-1,8.064476E-1,1.0533762E0,0E0,1.8981338E-1,4.8103175E-1,5.1546965E0,4.9398155E0,1.5143749E0,0E0,9.064884E-1,4.5436034E-1,0E0,0E0,0E0,0E0,0E0,0E0,0E0,0E0,4.979735E0,0E0,2.1840882E0,0E0,0E0,4.2099822E-1,3.420744E-1,2.0089555E0,2.7734315E-1,0E0,7.5528383E0,1.4800811E0,2.559493E0,2.0328856E0,0E0,0E0,2.9434967E-1,0E0,1.4206939E0,0E0,0E0,0E0,5.973282E-1,3.654445E0,0E0,0E0,0E0,0E0,2.081469E0,1.5892613E0,1.3298166E0,0E0,1.2130322E0,8.400698E-1,0E0,0E0,0E0,0E0,0E0,0E0,0E0,0E0,0E0,0E0,0E0,0E0,0E0,0E0],"parents":[2147483647,0,0,1,1,2,2,3,3,4,4,5,5,6,6,7,7,8,8,9,9,10,10,13,13,14,14,15,15,17,17,18,18,19,19,20,20,21,21,23,23,24,24,33,33,35,35,38,38,39,39,40,40,41,41,43,43,44,44,45,45,46,46,49,49,51,51,55,55,56,56,61,61,62,62,63,63,65,65,66,66],"right_children":[2,4,6,8,10,12,14,16,18,20,22,-1,-1,24,26,28,-1,30,32,34,36,38,-1,40,42,-1,-1,-1,-1,-1,-1,-1,-1,44,-1,46,-1,-1,48,50,52,54,-1,56,58,60,62,-1,-1,64,-1,66,-1,-1,-1,68,70,-1,-1,-1,-1,72,74,76,-1,78,80,-1,-1,-1,-1,-1,-1,-1,-1,-1,-1,-1,-1,-1,-1],"split_conditions":[1E0,1E0,1E0,1E0,1E0,1E0,1E0,1E0,1E0,1E0,1E0,8.222829E-2,2.89581E-1,1E0,1E0,1E0,2.622184E-1,1E0,1E0,1E0,1E0,1E0,-2.941509E-1,1E0,1E0,9.433564E-2,-1.2697604E-1,1.7233388E-1,-9.7206436E-2,1.9656405E-1,5.9238013E-2,7.181188E-2,-1.0482512E-1,1E0,-2.752099E-1,1E0,-2.9301295E-1,-2.4103566E-1,1E0,1E0,1E0,1E0,-1.0263509E-1,1E0,1E0,1E0,1E0,-5.181957E-2,1.3052881E-1,1E0,2.8035866E-2,1E0,-1.6431123E-1,-2.916027E-2,1.3306116E-1,1E0,1E0,7.385239E-2,-2.6315698E-1,2.9543304E-1,-1.6334477E-1,1E0,1E0,1E0,2.5058073E-1,1E0,1E0,4.638214E-1,1.0441022E-1,1.01346545E-1,-2.3876709E-1,-5.7347625E-2,-2.8263134E-1,8.558427E-2,-9.587517E-2,-1.1235918E-1,2.1004342E-1,9.086526E-2,-2.2410212E-1,2.4436268E-1,1.13523014E-1],"split_indices":[0,5,7,7,32,81,73,42,22,42,7,0,0,51,27,23,0,36,29,48,62,33,0,13,31,0,0,0,0,0,0,0,0,45,0,23,0,0,67,90,12,17,0,70,7,63,20,0,0,22,0,15,0,0,0,38,22,0,0,0,0,7,46,67,0,14,22,0,0,0,0,0,0,0,0,0,0,0,0,0,0],"split_type":[0,0,0,0,0,0,0,0,0,0,0,0,0,0,0,0,0,0,0,0,0,0,0,0,0,0,0,0,0,0,0,0,0,0,0,0,0,0,0,0,0,0,0,0,0,0,0,0,0,0,0,0,0,0,0,0,0,0,0,0,0,0,0,0,0,0,0,0,0,0,0,0,0,0,0,0,0,0,0,0,0],"sum_hessian":[2.0146555E2,1.3320772E2,6.825783E1,2.5959421E1,1.072483E2,1.3313551E1,5.4944275E1,1.5286209E1,1.0673213E1,8.204889E1,2.519941E1,1.2176994E0,1.2095852E1,5.0701015E1,4.24326E0,3.9861524E0,1.1300056E1,6.8707256E0,3.8024871E0,2.4883715E1,5.7165176E1,5.253869E0,1.9945541E1,4.7063828E1,3.6371899E0,1.5745535E0,2.6687064E0,2.7803624E0,1.20579E0,4.3741627E0,2.496563E0,1.4839133E0,2.3185737E0,2.0679989E1,4.203725E0,4.072346E1,1.6441713E1,2.5021703E0,2.751699E0,1.5397437E1,3.166639E1,2.4016292E0,1.2355607E0,1.5933141E1,4.7468486E0,2.739693E0,3.798377E1,1.5087289E0,1.2429701E0,1.4243922E1,1.1535141E0,3.0312973E1,1.353418E0,1.1113913E0,1.2902379E0,4.9952435E0,1.0937898E1,1.0732275E0,3.673621E0,1.736656E0,1.003037E0,1.5928892E1,2.2054878E1,3.0074182E0,1.1236505E1,2.5863135E0,2.7726658E1,3.7669954E0,1.228248E0,7.7162366E0,3.2216609E0,6.781304E0,9.147588E0,4.852635E0,1.7202242E1,1.0980002E0,1.909418E0,1.5744646E0,1.0118489E0,6.761309E0,2.096535E1],"tree_param":{"num_deleted":"0","num_feature":"100","num_nodes":"81","size_leaf_vector":"1"}},{"base_weights":[-6.4933533E-3,-2.4653268E-1,4.5634806E-1,-4.5628747E-1,4.7642022E-1,8.8519335E-1,3.4975803E-1,-3.9760906E-2,-5.798626E-1,5.317234E-1,-1.08198956E-1,7.092914E-2,2.806536E-1,3.9386553E-1,-1.04760334E-1,1.634136E-1,-3.327249E-1,-1.9055685E-1,-7.4910337E-1,5.956597E-1,5.7710946E-2,4.262605E-1,8.091401E-3,7.940174E-2,-9.787361E-2,4.7500977E-1,-5.5075627E-2,-5.5593934E-2,-2.427169E-1,-4.8348058E-2,-2.4670322E-1,-3.5039726E-1,-8.755861E-1,7.4508333E-1,3.18628E-1,1.8240324E-1,-3.1231633E-1,6.378661E-1,3.115424E-1,2.254729E-1,-7.990277E-2,-1.5117419E-2,6.7726386E-1,-5.1288056E-1,1.7093432E-1,-1.9949186E-1,2.20225E-1,-3.6321253E-1,2.8848532E-1,1.9937262E-1,-2.6263103E-1,-7.299211E-2,-9.479335E-1,4.740453E-2,2.3804663E-1,-5.318525E-2,4.265241E-1,3.8682964E-2,-1.8019329E-1,6.8067455E-1,2.3915423E-2,3.645376E-1,-1.3657954E-1,8.320733E-2,1.8641837E-2,2.7100688E-1,5.281286E-4,-2.3235399E-1,-1.1354538E-2,4.2289385E-1,-1.7394881E-1,4.2617866E-1,-3.6948305E-2,1.3673708E-1,-5.2627015E-1,-2.0741458E-1,5.472057E-1,2.4657777E-1,-1.1775661E-1,1.718982E-1,-1.9159214E-1,-4.3301854E-1,-3.0090287E-1,2.0786555E-1,5.622846E-1,2.6786038E-1,7.688755E-1,-1.9010796E-1,4.2358258E-1,-3.4421086E-2,1.771764E-1,1.6208889E-1,1.8304275E-2,-7.223345E-2,-2.5784487E-1,3.0271995E-1,4.454453E-2,-2.3254247E-1,9.8879576E-2,1.906337E-1,-5.858695E-2,5.6971062E-2,2.0081152E-1,1.9867142E-1,-1.0390527E-1,2.4579108E-1,5.482387E-2,3.347935E-2,-1.12954594E-1,2.2431566E-1,8.965157E-2],"categories":[],"categories_nodes":[],"categories_segments":[],"categories_sizes":[],"default_left":[0,0,0,0,0,0,0,0,0,0,0,0,0,0,0,0,0,0,0,0,0,0,0,0,0,0,0,0,0,0,0,0,0,0,0,0,0,0,0,0,0,0,0,0,0,0,0,0,0,0,0,0,0,0,0,0,0,0,0,0,0,0,0,0,0,0,0,0,0,0,0,0,0,0,0,0,0,0,0,0,0,0,0,0,0,0,0,0,0,0,0,0,0,0,0,0,0,0,0,0,0,0,0,0,0,0,0,0,0,0,0],"id":11,"left_children":[1,3,5,7,9,11,13,15,17,19,-1,-1,-1,21,23,25,27,29,31,33,35,37,39,-1,-1,41,43,45,-1,47,-1,49,51,53,55,-1,57,59,61,63,-1,-1,65,67,69,-1,71,73,75,77,-1,79,81,-1,-1,-1,83,-1,-1,85,-1,87,-1,-1,-1,-1,-1,-1,-1,89,-1,91,-1,-1,93,-1,95,-1,-1,-1,-1,97,-1,99,101,103,105,107,109,-1,-1,-1,-1,-1,-1,-1,-1,-1,-1,-1,-1,-1,-1,-1,-1,-1,-1,-1,-1,-1,-1],"loss_changes":[1.9677134E1,1.7900318E1,2.455431E0,4.655567E0,1.4284172E0,1.5059757E-1,1.0456762E0,1.35617E0,4.4709682E0,7.372861E-1,0E0,0E0,0E0,5.699148E-1,5.1361346E-1,9.5103025E-1,1.1807815E0,1.987069E0,2.137329E0,6.868825E-1,1.031574E0,8.2825565E-1,3.3289835E-1,0E0,0E0,6.4018774E-1,1.0066385E0,1.3135899E0,0E0,2.17041E0,0E0,4.0249887E0,2.0285378E0,2.6557302E-1,5.8771515E-1,0E0,4.759525E-1,2.7828312E-1,1.3602114E0,8.982092E-3,0E0,0E0,6.3792133E-1,3.6658883E-1,1.511867E0,0E0,4.4369063E-1,1.6433237E0,2.9051695E0,3.0239117E0,0E0,1.8533726E0,5.0313187E-1,0E0,0E0,0E0,1.2517631E-1,0E0,0E0,2.598772E-1,0E0,9.9893117E-1,0E0,0E0,0E0,0E0,0E0,0E0,0E0,5.719087E-1,0E0,1.2046623E-1,0E0,0E0,6.70954E-1,0E0,1.4050925E0,0E0,0E0,0E0,0E0,1.5479714E0,0E0,9.3599933E-1,5.0104737E-2,1.1466736E0,1.4605188E-1,2.3258197E-1,8.139024E-1,0E0,0E0,0E0,0E0,0E0,0E0,0E0,0E0,0E0,0E0,0E0,0E0,0E0,0E0,0E0,0E0,0E0,0E0,0E0,0E0,0E0,0E0],"parents":[2147483647,0,0,1,1,2,2,3,3,4,4,5,5,6,6,7,7,8,8,9,9,13,13,14,14,15,15,16,16,17,17,18,18,19,19,20,20,21,21,22,22,25,25,26,26,27,27,29,29,31,31,32,32,33,33,34,34,36,36,37,37,38,38,39,39,42,42,43,43,44,44,46,46,47,47,48,48,49,49,51,51,52,52,56,56,59,59,61,61,69,69,71,71,74,74,76,76,81,81,83,83,84,84,85,85,86,86,87,87,88,88],"right_children":[2,4,6,8,10,12,14,16,18,20,-1,-1,-1,22,24,26,28,30,32,34,36,38,40,-1,-1,42,44,46,-1,48,-1,50,52,54,56,-1,58,60,62,64,-1,-1,66,68,70,-1,72,74,76,78,-1,80,82,-1,-1,-1,84,-1,-1,86,-1,88,-1,-1,-1,-1,-1,-1,-1,90,-1,92,-1,-1,94,-1,96,-1,-1,-1,-1,98,-1,100,102,104,106,108,110,-1,-1,-1,-1,-1,-1,-1,-1,-1,-1,-1,-1,-1,-1,-1,-1,-1,-1,-1,-1,-1,-1],"split_conditions":[1E0,1E0,1E0,1E0,1E0,1E0,1E0,1E0,1E0,1E0,-1.08198956E-1,7.092914E-2,2.806536E-1,1E0,1E0,1E0,1E0,1E0,1E0,1E0,1E0,1E0,1E0,7.940174E-2,-9.787361E-2,1E0,1E0,1E0,-2.427169E-1,1E0,-2.4670322E-1,1E0,1E0,1E0,1E0,1.8240324E-1,1E0,1E0,1E0,1E0,-7.990277E-2,-1.5117419E-2,1E0,1E0,1E0,-1.9949186E-1,1E0,1E0,1E0,1E0,-2.6263103E-1,1E0,1E0,4.740453E-2,2.3804663E-1,-5.318525E-2,1E0,3.8682964E-2,-1.8019329E-1,1E0,2.3915423E-2,1E0,-1.3657954E-1,8.320733E-2,1.8641837E-2,2.7100688E-1,5.281286E-4,-2.3235399E-1,-1.1354538E-2,1E0,-1.7394881E-1,1E0,-3.6948305E-2,1.3673708E-1,1E0,-2.0741458E-1,1E0,2.4657777E-1,-1.1775661E-1,1.718982E-1,-1.9159214E-1,1E0,-3.0090287E-1,1E0,1E0,1E0,1E0,1E0,1E0,-3.4421086E-2,1.771764E-1,1.6208889E-1,1.8304275E-2,-7.223345E-2,-2.5784487E-1,3.0271995E-1,4.454453E-2,-2.3254247E-1,9.8879576E-2,1.906337E-1,-5.858695E-2,5.6971062E-2,2.0081152E-1,1.9867142E-1,-1.0390527E-1,2.4579108E-1,5.482387E-2,3.347935E-2,-1.12954594E-1,2.2431566E-1,8.965157E-2],"split_indices":[0,1,7,7,34,81,73,46,22,25,0,0,0,51,27,14,26,53,46,36,27,13,45,0,0,17,35,50,0,40,0,38,87,77,31,0,21,90,12,33,0,0,45,30,69,0,62,9,20,44,0,19,23,0,0,0,23,0,0,22,0,15,0,0,0,0,0,0,0,19,0,27,0,0,41,0,42,0,0,0,0,11,0,86,29,43,25,6,22,0,0,0,0,0,0,0,0,0,0,0,0,0,0,0,0,0,0,0,0,0,0],"split_type":[0,0,0,0,0,0,0,0,0,0,0,0,0,0,0,0,0,0,0,0,0,0,0,0,0,0,0,0,0,0,0,0,0,0,0,0,0,0,0,0,0,0,0,0,0,0,0,0,0,0,0,0,0,0,0,0,0,0,0,0,0,0,0,0,0,0,0,0,0,0,0,0,0,0,0,0,0,0,0,0,0,0,0,0,0,0,0,0,0,0,0,0,0,0,0,0,0,0,0,0,0,0,0,0,0,0,0,0,0,0,0],"sum_hessian":[1.7509906E2,1.1560909E2,5.9489964E1,8.98959E1,2.5713198E1,1.0388621E1,4.910134E1,2.0870575E1,6.902532E1,2.4461876E1,1.2513206E0,1.1579338E0,9.230687E0,4.487957E1,4.2217712E0,1.2584949E1,8.285627E0,2.1558983E1,4.746634E1,2.1328403E1,3.1334734E0,4.1305996E1,3.5735772E0,1.5092992E0,2.7124722E0,4.7033086E0,7.88164E0,5.9440656E0,2.3415616E0,1.8476614E1,3.0823696E0,1.2339472E1,3.5126865E1,1.2757705E1,8.570698E0,1.0012604E0,2.1322129E0,1.291784E1,2.8388155E1,2.0936146E0,1.4799627E0,1.5160011E0,3.1873076E0,2.1854722E0,5.6961675E0,1.4124888E0,4.5315766E0,9.509255E0,8.967359E0,6.3307753E0,6.0086966E0,3.0706935E0,3.205617E1,1.2966123E0,1.1461093E1,1.4166032E0,7.1540947E0,1.0610945E0,1.0711182E0,1.1793766E1,1.1240739E0,2.7043726E1,1.3444285E0,1.059078E0,1.0345366E0,2.1353078E0,1.0519998E0,1.0027469E0,1.1827252E0,4.591841E0,1.1043265E0,2.6819243E0,1.8496524E0,1.2808008E0,8.228455E0,1.5238138E0,7.443545E0,2.8960655E0,3.4347098E0,1.4274826E0,1.6432109E0,3.9537818E0,2.810239E1,3.7099288E0,3.444166E0,2.7869065E0,9.00686E0,2.3883913E0,2.4655334E1,1.1668125E0,3.4250286E0,1.6779506E0,1.0039737E0,5.359288E0,2.8691666E0,2.7395065E0,4.7040386E0,2.7180123E0,1.2357696E0,1.520806E0,2.189123E0,1.3886561E0,2.0555098E0,1.6495548E0,1.1373518E0,7.927031E0,1.0798289E0,1.0653743E0,1.323017E0,5.463887E0,1.9191448E1],"tree_param":{"num_deleted":"0","num_feature":"100","num_nodes":"111","size_leaf_vector":"1"}},{"base_weights":[-7.451032E-3,-2.1592443E-1,3.8711962E-1,-4.0118685E-1,4.1157553E-1,8.4064287E-1,2.878336E-1,-2.8147736E-1,-8.0581826E-1,6.6629416E-1,1.7728657E-1,6.11769E-2,2.7081072E-1,3.2678798E-1,-9.171204E-2,4.1069478E-2,-4.529571E-1,-3.03694E-1,-2.8284192E-1,1.464902E-1,2.3786168E-1,2.0309131E-1,3.939241E-2,2.0932494E-1,5.45642E-1,2.783124E-1,-1.323072E-1,2.1001142E-1,-2.4719448E-1,-6.704956E-1,4.926575E-2,-2.0988792E-1,1.1131225E-1,1.698482E-1,-1.06958725E-1,-1.5420721E-1,1.6204165E-1,7.064437E-1,2.6417488E-2,-1.4739279E-2,6.3089585E-1,9.433897E-3,1.17035456E-1,4.0984225E-1,-2.4027495E-1,-1.684001E-1,-9.280082E-1,-1.9120453E-1,1.7998755E-1,1.0518075E-1,-4.683876E-2,1.8642294E-1,1.980127E-2,3.3801474E-2,2.378724E-1,-3.7109926E-1,2.3277208E-1,2.495024E-1,7.95333E-1,6.4649445E-1,-4.565294E-1,-5.198069E-1,2.4013378E-2,-7.32112E-2,-2.897177E-1,4.6854958E-1,-9.2467435E-2,-1.329686E-1,2.4230388E-1,9.198565E-2,-4.4205767E-1,5.707077E-1,-1.9887066E-1,-1.6570733E-1,1.9687095E-1,2.6728904E-1,2.0602914E-2,2.6121998E-1,-2.0260297E-1,7.242044E-2,-2.2463824E-1,-2.9750085E-1,9.325423E-2,7.493348E-2,-1.997252E-1,2.8396603E-1,-4.3362126E-2,1.5138623E-1,-2.3362052E-1,1.363691E-1,-1.0801801E-2,1.7107311E-1,-3.7218306E-2,2.033662E-1,7.9654366E-2,1.890264E-1,-1.4063258E-1,-2.3993024E-1,1.6509351E-1],"categories":[],"categories_nodes":[],"categories_segments":[],"categories_sizes":[],"default_left":[0,0,0,0,0,0,0,0,0,0,0,0,0,0,0,0,0,0,0,0,0,0,0,0,0,0,0,0,0,0,0,0,0,0,0,0,0,0,0,0,0,0,0,0,0,0,0,0,0,0,0,0,0,0,0,0,0,0,0,0,0,0,0,0,0,0,0,0,0,0,0,0,0,0,0,0,0,0,0,0,0,0,0,0,0,0,0,0,0,0,0,0,0,0,0,0,0,0,0],"id":12,"left_children":[1,3,5,7,9,11,13,15,17,19,21,-1,-1,23,25,27,29,31,-1,33,-1,-1,35,37,39,41,-1,43,-1,45,47,-1,49,-1,-1,-1,51,53,55,-1,57,-1,-1,59,-1,61,63,-1,65,-1,-1,-1,67,-1,-1,69,71,73,75,77,79,81,83,-1,-1,85,87,-1,89,91,-1,93,95,97,-1,-1,-1,-1,-1,-1,-1,-1,-1,-1,-1,-1,-1,-1,-1,-1,-1,-1,-1,-1,-1,-1,-1,-1,-1],"loss_changes":[1.28619795E1,1.2055937E1,2.1923437E0,3.6228638E0,1.3027163E0,1.7901373E-1,7.0819426E-1,3.4958572E0,9.2484E-1,6.1052656E-1,9.2173177E-1,0E0,0E0,9.609103E-1,7.755679E-1,3.4961727E0,4.526533E0,9.404112E-1,0E0,9.173643E-1,0E0,0E0,8.8756114E-1,2.6034338E0,7.400999E-1,7.234995E-2,0E0,4.3322706E0,0E0,3.563179E0,1.3140606E0,0E0,2.739675E-1,0E0,0E0,0E0,6.7114353E-1,3.068838E-1,1.9008609E0,0E0,5.731778E-1,0E0,0E0,3.8238258E0,0E0,7.544879E-1,2.4914551E-1,0E0,9.871631E-1,0E0,0E0,0E0,1.0366478E0,0E0,0E0,4.1912203E0,2.3271246E0,9.8078096E-1,5.044513E-1,4.717599E0,1.0535185E0,1.8474346E0,1.419403E0,0E0,0E0,1.8937068E0,3.2654114E0,0E0,4.1444826E-1,7.460378E-1,0E0,1.0688686E-1,1.9522668E0,1.9626528E0,0E0,0E0,0E0,0E0,0E0,0E0,0E0,0E0,0E0,0E0,0E0,0E0,0E0,0E0,0E0,0E0,0E0,0E0,0E0,0E0,0E0,0E0,0E0,0E0,0E0],"parents":[2147483647,0,0,1,1,2,2,3,3,4,4,5,5,6,6,7,7,8,8,9,9,10,10,13,13,14,14,15,15,16,16,17,17,19,19,22,22,23,23,24,24,25,25,27,27,29,29,30,30,32,32,36,36,37,37,38,38,40,40,43,43,45,45,46,46,48,48,52,52,55,55,56,56,57,57,58,58,59,59,60,60,61,61,62,62,65,65,66,66,68,68,69,69,71,71,72,72,73,73],"right_children":[2,4,6,8,10,12,14,16,18,20,22,-1,-1,24,26,28,30,32,-1,34,-1,-1,36,38,40,42,-1,44,-1,46,48,-1,50,-1,-1,-1,52,54,56,-1,58,-1,-1,60,-1,62,64,-1,66,-1,-1,-1,68,-1,-1,70,72,74,76,78,80,82,84,-1,-1,86,88,-1,90,92,-1,94,96,98,-1,-1,-1,-1,-1,-1,-1,-1,-1,-1,-1,-1,-1,-1,-1,-1,-1,-1,-1,-1,-1,-1,-1,-1,-1],"split_conditions":[1E0,1E0,1E0,1E0,1E0,1E0,1E0,1E0,1E0,1E0,1E0,6.11769E-2,2.7081072E-1,1E0,1E0,1E0,1E0,1E0,-2.8284192E-1,1E0,2.3786168E-1,2.0309131E-1,1E0,1E0,1E0,1E0,-1.323072E-1,1E0,-2.4719448E-1,1E0,1E0,-2.0988792E-1,1E0,1.698482E-1,-1.06958725E-1,-1.5420721E-1,1E0,1E0,1E0,-1.4739279E-2,1E0,9.433897E-3,1.17035456E-1,1E0,-2.4027495E-1,1E0,1E0,-1.9120453E-1,1E0,1.0518075E-1,-4.683876E-2,1.8642294E-1,1E0,3.3801474E-2,2.378724E-1,1E0,1E0,1E0,1E0,1E0,1E0,1E0,1E0,-7.32112E-2,-2.897177E-1,1E0,1E0,-1.329686E-1,1E0,1E0,-4.4205767E-1,1E0,1E0,1E0,1.9687095E-1,2.6728904E-1,2.0602914E-2,2.6121998E-1,-2.0260297E-1,7.242044E-2,-2.2463824E-1,-2.9750085E-1,9.325423E-2,7.493348E-2,-1.997252E-1,2.8396603E-1,-4.3362126E-2,1.5138623E-1,-2.3362052E-1,1.363691E-1,-1.0801801E-2,1.7107311E-1,-3.7218306E-2,2.033662E-1,7.9654366E-2,1.890264E-1,-1.4063258E-1,-2.3993024E-1,1.6509351E-1],"split_indices":[0,1,7,32,7,81,51,42,7,42,56,0,0,63,41,48,11,33,0,23,0,0,31,27,35,67,0,66,0,7,17,0,81,0,0,0,29,36,11,0,27,0,0,45,0,35,23,0,6,0,0,0,36,0,0,25,14,10,11,53,7,84,16,0,0,44,36,0,18,36,0,4,22,84,0,0,0,0,0,0,0,0,0,0,0,0,0,0,0,0,0,0,0,0,0,0,0,0,0],"split_type":[0,0,0,0,0,0,0,0,0,0,0,0,0,0,0,0,0,0,0,0,0,0,0,0,0,0,0,0,0,0,0,0,0,0,0,0,0,0,0,0,0,0,0,0,0,0,0,0,0,0,0,0,0,0,0,0,0,0,0,0,0,0,0,0,0,0,0,0,0,0,0,0,0,0,0,0,0,0,0,0,0,0,0,0,0,0,0,0,0,0,0,0,0,0,0,0,0,0,0],"sum_hessian":[1.5434622E2,1.012847E2,5.3061523E1,7.847615E1,2.2808554E1,8.188918E0,4.4872604E1,6.186819E1,1.6607956E1,1.00444E1,1.2764154E1,1.1079063E0,7.081012E0,4.0821888E1,4.050719E0,2.1738811E1,4.012938E1,4.249291E0,1.23586645E1,2.3894062E0,7.6549935E0,1.9150978E0,1.0849057E1,2.7837463E1,1.2984423E1,2.0657427E0,1.9849759E0,1.8820457E1,2.918354E0,2.7767006E1,1.2362374E1,1.8236426E0,2.4256485E0,1.2341915E0,1.1552145E0,1.3892937E0,9.459764E0,6.7175984E0,2.1119865E1,1.6809549E0,1.1303468E1,1.0433326E0,1.0224103E0,1.621067E1,2.6097867E0,9.973913E0,1.7793093E1,1.3573427E0,1.1005032E1,1.1160895E0,1.309559E0,1.4401242E0,8.019639E0,1.1466134E0,5.5709853E0,6.9442544E0,1.4175611E1,4.163655E0,7.1398134E0,1.2932035E1,3.278636E0,2.9269264E0,7.046987E0,1.3203281E0,1.6472765E1,4.995002E0,6.0100293E0,2.2809486E0,5.7386904E0,5.535552E0,1.4087021E0,7.7701435E0,6.4054666E0,2.3536E0,1.8100549E0,6.10965E0,1.0301634E0,1.1348182E1,1.583854E0,1.0190842E0,2.2595518E0,1.742971E0,1.1839553E0,5.789816E0,1.257171E0,2.5010884E0,2.4939134E0,3.3553715E0,2.654658E0,2.8963892E0,2.8423011E0,1.2123506E0,4.3232017E0,4.846829E0,2.9233146E0,1.2455429E0,5.1599236E0,1.1862075E0,1.1673925E0],"tree_param":{"num_deleted":"0","num_feature":"100","num_nodes":"99","size_leaf_vector":"1"}},{"base_weights":[-1.0051611E-2,-1.9670397E-1,3.3728233E-1,-3.662219E-1,3.5113662E-1,7.919896E-1,2.478201E-1,-2.6012987E-1,-7.578288E-1,6.0141724E-1,1.4975607E-1,5.276619E-2,2.5989333E-1,2.9702273E-1,-2.4645926E-2,-1.7759827E-1,-7.8364384E-1,-2.6520583E-1,-2.7507046E-1,1.3036545E-1,2.2103748E-1,1.883034E-1,3.3260953E-2,6.7361796E-1,1.8698733E-1,-2.7016369E-1,3.5795557E-1,-1.02398954E-1,-2.5388262E-1,-4.2028986E-2,-2.630226E-1,-1.9332814E-1,9.676911E-2,1.5683866E-1,-8.448805E-2,1.5856302E-1,-6.1746445E-2,7.888603E-1,3.7865996E-2,5.1018196E-1,6.106748E-2,-1.12325005E-1,6.095209E-1,2.2003385E-1,-2.9182136E-1,-4.7953915E-2,1.03051305E-1,2.4411172E-1,-2.202188E-1,7.5470425E-2,2.5758806E-1,-7.7261426E-2,6.9615835E-1,2.1603355E-1,-6.926764E-2,2.1876131E-1,6.308119E-2,4.1161793E-1,-2.391468E-1,-5.0891745E-1,4.655856E-2,1.158526E-1,-1.3261678E-2,1.2880023E-1,-3.9489263E-1,2.563032E-1,2.315864E-2,-2.6852182E-1,3.143238E-1,-1.7523515E-1,1.9290239E-1,-3.348764E-2,-2.4993716E-1,1.0458995E-1,-5.9357323E-2,2.0717533E-2,-1.49548E-1,9.8281845E-2,-1.5312666E-1,2.412144E-1,-4.0571418E-2],"categories":[],"categories_nodes":[],"categories_segments":[],"categories_sizes":[],"default_left":[0,0,0,0,0,0,0,0,0,0,0,0,0,0,0,0,0,0,0,0,0,0,0,0,0,0,0,0,0,0,0,0,0,0,0,0,0,0,0,0,0,0,0,0,0,0,0,0,0,0,0,0,0,0,0,0,0,0,0,0,0,0,0,0,0,0,0,0,0,0,0,0,0,0,0,0,0,0,0,0,0],"id":13,"left_children":[1,3,5,7,9,11,13,15,17,19,21,-1,-1,23,25,27,29,31,-1,33,-1,-1,35,37,39,-1,41,43,-1,-1,-1,-1,45,-1,-1,-1,47,49,-1,51,53,-1,55,57,59,-1,-1,61,63,-1,-1,-1,65,-1,67,-1,-1,69,-1,71,73,-1,-1,-1,75,-1,-1,77,79,-1,-1,-1,-1,-1,-1,-1,-1,-1,-1,-1,-1],"loss_changes":[9.012737E0,8.523187E0,1.78091E0,2.6912146E0,1.0122638E0,1.9266081E-1,5.7130075E-1,2.2900763E0,8.771696E-1,5.0464106E-1,7.280133E-1,0E0,0E0,1.3538549E0,2.7882707E0,2.4205384E0,3.1834698E-1,7.345182E-1,0E0,6.836511E-1,0E0,0E0,5.912208E-1,3.855772E-1,1.1498697E0,0E0,1.3035915E0,2.871131E0,0E0,0E0,0E0,0E0,2.6858324E-1,0E0,0E0,0E0,5.799279E-1,1.5001297E-2,0E0,1.3215857E0,1.9412981E0,0E0,7.244992E-2,3.7536302E0,2.1819835E0,0E0,0E0,1.8824825E-1,1.0405016E0,0E0,0E0,0E0,5.9107304E-1,0E0,1.5592583E0,0E0,0E0,3.935609E0,0E0,2.2230783E0,9.844049E-1,0E0,0E0,0E0,3.5023844E-1,0E0,0E0,2.0763063E0,1.6625066E0,0E0,0E0,0E0,0E0,0E0,0E0,0E0,0E0,0E0,0E0,0E0,0E0],"parents":[2147483647,0,0,1,1,2,2,3,3,4,4,5,5,6,6,7,7,8,8,9,9,10,10,13,13,14,14,15,15,16,16,17,17,19,19,22,22,23,23,24,24,26,26,27,27,32,32,36,36,37,37,39,39,40,40,42,42,43,43,44,44,47,47,48,48,52,52,54,54,57,57,59,59,60,60,64,64,67,67,68,68],"right_children":[2,4,6,8,10,12,14,16,18,20,22,-1,-1,24,26,28,30,32,-1,34,-1,-1,36,38,40,-1,42,44,-1,-1,-1,-1,46,-1,-1,-1,48,50,-1,52,54,-1,56,58,60,-1,-1,62,64,-1,-1,-1,66,-1,68,-1,-1,70,-1,72,74,-1,-1,-1,76,-1,-1,78,80,-1,-1,-1,-1,-1,-1,-1,-1,-1,-1,-1,-1],"split_conditions":[1E0,1E0,1E0,1E0,1E0,1E0,1E0,1E0,1E0,1E0,1E0,5.276619E-2,2.5989333E-1,1E0,1E0,1E0,1E0,1E0,-2.7507046E-1,1E0,2.2103748E-1,1.883034E-1,1E0,1E0,1E0,-2.7016369E-1,1E0,1E0,-2.5388262E-1,-4.2028986E-2,-2.630226E-1,-1.9332814E-1,1E0,1.5683866E-1,-8.448805E-2,1.5856302E-1,1E0,1E0,3.7865996E-2,1E0,1E0,-1.12325005E-1,1E0,1E0,1E0,-4.7953915E-2,1.03051305E-1,1E0,1E0,7.5470425E-2,2.5758806E-1,-7.7261426E-2,1E0,2.1603355E-1,1E0,2.1876131E-1,6.308119E-2,1E0,-2.391468E-1,1E0,1E0,1.158526E-1,-1.3261678E-2,1.2880023E-1,1E0,2.563032E-1,2.315864E-2,1E0,1E0,-1.7523515E-1,1.9290239E-1,-3.348764E-2,-2.4993716E-1,1.0458995E-1,-5.9357323E-2,2.0717533E-2,-1.49548E-1,9.8281845E-2,-1.5312666E-1,2.412144E-1,-4.0571418E-2],"split_indices":[0,1,7,32,7,81,47,53,7,42,56,0,0,27,49,91,33,33,0,23,0,0,86,49,22,0,31,42,0,0,0,0,67,0,0,0,18,35,0,39,39,0,4,21,11,0,0,21,35,0,0,0,12,0,4,0,0,88,0,7,6,0,0,0,29,0,0,31,11,0,0,0,0,0,0,0,0,0,0,0,0],"split_type":[0,0,0,0,0,0,0,0,0,0,0,0,0,0,0,0,0,0,0,0,0,0,0,0,0,0,0,0,0,0,0,0,0,0,0,0,0,0,0,0,0,0,0,0,0,0,0,0,0,0,0,0,0,0,0,0,0,0,0,0,0,0,0,0,0,0,0,0,0,0,0,0,0,0,0,0,0,0,0,0,0],"sum_hessian":[1.3699625E2,8.939195E1,4.7604298E1,6.852105E1,2.0870903E1,6.5352063E0,4.106909E1,5.5224255E1,1.3296797E1,8.419935E0,1.2450969E1,1.0658883E0,5.469318E0,3.4710796E1,6.358295E0,4.886065E1,6.363603E0,3.896659E0,9.400138E0,2.3178132E0,6.102122E0,1.5801941E0,1.0870775E1,6.6905656E0,2.8020231E1,1.521452E0,4.836843E0,4.4957836E1,3.9028146E0,1.1208032E0,5.2427998E0,1.5219189E0,2.37474E0,1.0493467E0,1.2684665E0,1.0152099E0,9.855565E0,5.162589E0,1.5279766E0,7.000533E0,2.10197E1,1.1117886E0,3.7250543E0,1.6577755E1,2.8380081E1,1.3366841E0,1.0380559E0,3.1791904E0,6.6763744E0,1.122643E0,4.039946E0,1.2901089E0,5.7104244E0,2.723441E0,1.8296257E1,2.2301016E0,1.4949528E0,1.4451251E1,2.1265035E0,1.6981314E1,1.1398767E1,1.9024023E0,1.2767882E0,1.1059186E0,5.570456E0,4.2452116E0,1.4652126E0,1.2238846E1,6.057412E0,2.437525E0,1.2013726E1,8.234644E0,8.746669E0,4.9073606E0,6.491407E0,1.0776908E0,4.492765E0,3.430523E0,8.808323E0,2.5218043E0,3.5356078E0],"tree_param":{"num_deleted":"0","num_feature":"100","num_nodes":"81","size_leaf_vector":"1"}},{"base_weights":[-4.9275775E-3,-1.6810136E-1,2.941883E-1,-3.207625E-1,3.1029737E-1,7.398893E-1,2.1606815E-1,-2.2733195E-1,-7.057938E-1,3.607233E-1,-9.607533E-2,4.5515116E-2,2.4788077E-1,3.33949E-1,9.533433E-2,-1.647152E-1,-2.4974246E-1,-2.314158E-1,-2.662605E-1,4.3262875E-1,-4.3250784E-2,4.665906E-1,-1.2178174E-1,5.362716E-1,-8.9323215E-2,-1.0100873E-1,-2.4092977E-1,-1.7803961E-1,8.5081406E-2,6.037767E-1,1.8387772E-1,7.039353E-2,-9.651201E-2,5.404541E-1,6.2187128E-2,-2.6786456E-1,2.7208763E-1,2.6360962E-1,2.1819414E-1,1.2157574E-1,-1.9935085E-1,1.930951E-1,-2.6553062E-1,9.133358E-2,-5.543409E-2,1.4379875E-2,2.0003992E-1,-6.3393086E-2,2.889488E-1,2.575132E-1,3.214913E-1,-1.642144E-1,1.7597714E-1,1.9258463E-1,-6.7875475E-2,1.4212747E-1,-1.4228735E-2,-5.3968835E-1,1.4976412E-1,3.7162527E-1,-2.1761023E-1,-1.2607917E-1,-2.3938094E-1,1.5929458E-1,1.5454057E-1,-1.2441995E-1,5.0972605E-1,1.0957623E-1,-9.160801E-1,4.7847426E-1,-1.7961222E-1,-1.5675455E-1,1.6597489E-1,1.2816568E-1,-5.8945205E-2,-6.304209E-2,1.2530774E-1,1.8564549E-1,7.053769E-2,1.07322015E-1,-4.3376386E-1,-7.582998E-2,2.1473072E-1],"categories":[],"categories_nodes":[],"categories_segments":[],"categories_sizes":[],"default_left":[0,0,0,0,0,0,0,0,0,0,0,0,0,0,0,0,0,0,0,0,0,0,0,0,0,0,0,0,0,0,0,0,0,0,0,0,0,0,0,0,0,0,0,0,0,0,0,0,0,0,0,0,0,0,0,0,0,0,0,0,0,0,0,0,0,0,0,0,0,0,0,0,0,0,0,0,0,0,0,0,0,0,0],"id":14,"left_children":[1,3,5,7,9,11,13,15,17,19,-1,-1,-1,21,23,25,-1,27,-1,29,31,33,35,37,39,41,-1,-1,43,45,47,-1,-1,49,51,-1,53,55,-1,-1,57,59,61,-1,-1,-1,-1,-1,63,-1,65,-1,-1,-1,-1,-1,-1,67,69,71,-1,73,-1,-1,75,-1,77,-1,79,81,-1,-1,-1,-1,-1,-1,-1,-1,-1,-1,-1,-1,-1],"loss_changes":[6.2144413E0,6.1147966E0,1.4051287E0,2.1033978E0,7.6521266E-1,1.9425201E-1,5.3256714E-1,1.8377066E0,8.131008E-1,5.819607E-1,0E0,0E0,0E0,1.2456062E0,1.7570273E0,1.8903897E0,0E0,5.804583E-1,0E0,5.936222E-1,3.72555E-1,4.2757726E-1,1.8302889E0,1.3845444E-1,9.3253195E-1,2.2394035E0,0E0,0E0,2.541152E-1,2.9618096E-1,4.0088552E-1,0E0,0E0,6.2379E-1,1.4445313E0,0E0,9.241397E-1,2.9569083E-1,0E0,0E0,1.6817683E0,3.0245345E0,2.083721E0,0E0,0E0,0E0,0E0,0E0,1.420033E-1,0E0,1.4936371E0,0E0,0E0,0E0,0E0,0E0,0E0,2.732518E0,2.1154594E0,2.680912E0,0E0,1.0384005E0,0E0,0E0,6.481127E-1,0E0,8.867645E-2,0E0,4.065078E0,1.1736778E0,0E0,0E0,0E0,0E0,0E0,0E0,0E0,0E0,0E0,0E0,0E0,0E0,0E0],"parents":[2147483647,0,0,1,1,2,2,3,3,4,4,5,5,6,6,7,7,8,8,9,9,13,13,14,14,15,15,17,17,19,19,20,20,21,21,22,22,23,23,24,24,25,25,28,28,29,29,30,30,33,33,34,34,36,36,37,37,40,40,41,41,42,42,48,48,50,50,57,57,58,58,59,59,61,61,64,64,66,66,68,68,69,69],"right_children":[2,4,6,8,10,12,14,16,18,20,-1,-1,-1,22,24,26,-1,28,-1,30,32,34,36,38,40,42,-1,-1,44,46,48,-1,-1,50,52,-1,54,56,-1,-1,58,60,62,-1,-1,-1,-1,-1,64,-1,66,-1,-1,-1,-1,-1,-1,68,70,72,-1,74,-1,-1,76,-1,78,-1,80,82,-1,-1,-1,-1,-1,-1,-1,-1,-1,-1,-1,-1,-1],"split_conditions":[1E0,1E0,1E0,1E0,1E0,1E0,1E0,1E0,1E0,1E0,-9.607533E-2,4.5515116E-2,2.4788077E-1,1E0,1E0,1E0,-2.4974246E-1,1E0,-2.662605E-1,1E0,1E0,1E0,1E0,1E0,1E0,1E0,-2.4092977E-1,-1.7803961E-1,1E0,1E0,1E0,7.039353E-2,-9.651201E-2,1E0,1E0,-2.6786456E-1,1E0,1E0,2.1819414E-1,1.2157574E-1,1E0,1E0,1E0,9.133358E-2,-5.543409E-2,1.4379875E-2,2.0003992E-1,-6.3393086E-2,1E0,2.575132E-1,1E0,-1.642144E-1,1.7597714E-1,1.9258463E-1,-6.7875475E-2,1.4212747E-1,-1.4228735E-2,1E0,1E0,1E0,-2.1761023E-1,1E0,-2.3938094E-1,1.5929458E-1,1E0,-1.2441995E-1,1E0,1.0957623E-1,1E0,1E0,-1.7961222E-1,-1.5675455E-1,1.6597489E-1,1.2816568E-1,-5.8945205E-2,-6.304209E-2,1.2530774E-1,1.8564549E-1,7.053769E-2,1.07322015E-1,-4.3376386E-1,-7.582998E-2,2.1473072E-1],"split_indices":[0,1,7,32,34,81,14,66,7,25,0,0,0,41,22,91,0,33,0,36,21,59,22,9,3,42,0,0,26,77,31,0,0,15,10,0,51,26,0,0,9,48,62,0,0,0,0,0,86,0,11,0,0,0,0,0,0,27,4,12,0,23,0,0,23,0,4,0,33,57,0,0,0,0,0,0,0,0,0,0,0,0,0],"split_type":[0,0,0,0,0,0,0,0,0,0,0,0,0,0,0,0,0,0,0,0,0,0,0,0,0,0,0,0,0,0,0,0,0,0,0,0,0,0,0,0,0,0,0,0,0,0,0,0,0,0,0,0,0,0,0,0,0,0,0,0,0,0,0,0,0,0,0,0,0,0,0,0,0,0,0,0,0,0,0,0,0,0,0],"sum_hessian":[1.2531136E2,8.136378E1,4.3947586E1,6.1930676E1,1.9433102E1,5.290779E0,3.8656807E1,5.1117165E1,1.0813511E1,1.8390322E1,1.0427811E0,1.0304819E0,4.260297E0,1.8665947E1,1.9990858E1,4.7476734E1,3.6404305E0,3.624977E0,7.188534E0,1.5551327E1,2.8389943E0,1.4439472E1,4.226475E0,5.338678E0,1.4652181E1,4.422191E1,3.254826E0,1.2826339E0,2.3423433E0,8.36721E0,7.1841164E0,1.4996725E0,1.3393217E0,1.1924977E1,2.514495E0,1.0005984E0,3.2258766E0,3.1799684E0,2.1587093E0,2.1781554E0,1.2474026E1,1.5801335E1,2.8420572E1,1.2213694E0,1.120974E0,1.0313739E0,7.3358364E0,1.2965357E0,5.887581E0,3.6724951E0,8.252481E0,1.1425606E0,1.3719344E0,1.6862136E0,1.539663E0,1.5855601E0,1.5944084E0,6.040004E0,6.4340215E0,1.3728233E1,2.073102E0,2.3501663E1,4.9189095E0,1.0486777E0,4.8389034E0,1.4353313E0,6.8171506E0,1.7829427E0,4.2570615E0,4.721283E0,1.7127388E0,2.000893E0,1.172734E1,2.0808253E0,2.1420837E1,2.1126297E0,2.7262738E0,3.981766E0,2.8353846E0,1.3458755E0,2.9111857E0,1.1407573E0,3.5805254E0],"tree_param":{"num_deleted":"0","num_feature":"100","num_nodes":"83","size_leaf_vector":"1"}},{"base_weights":[-5.7431497E-3,3.331795E-2,-2.9331413E-1,-1.1059608E-1,2.9436746E-1,-2.2355529E-2,-6.610758E-1,4.6617746E-1,1.09491765E-1,3.5260862E-1,-1.3338242E-1,-2.071923E-1,-2.5783482E-1,-3.1347837E-2,5.6865114E-1,4.9471253E-1,-4.4961717E-2,-1.6886984E-1,4.5592934E-1,-4.8629515E-2,-5.770299E-1,-1.6399218E-1,7.163048E-2,4.142315E-1,-2.048128E-1,7.7421033E-1,2.9704845E-1,1.7975454E-1,4.2628564E-2,1.1864198E-1,-1.4253613E-1,1.8345604E-2,-9.7814746E-2,2.6668853E-1,1.9922954E-1,2.05079E-1,-9.3009464E-2,7.372207E-2,-7.712122E-1,8.96449E-2,-4.9690705E-2,1.2574206E-2,1.7292276E-1,8.138971E-2,2.6812336E-1,-4.295087E-2,1.3329719E-1,-4.058817E-1,1.0634056E-1,2.1780671E-1,-9.735723E-2,-6.463832E-1,-2.1240275E-2,-6.0779385E-2,-2.60321E-1,9.283298E-2,-6.996221E-1,4.33313E-1,-4.360811E-1,4.8985623E-2,-1.3019748E-1,-6.793747E-2,-2.247666E-1,1.6852865E-2,-2.2890471E-1,9.3362726E-2,-3.3163482E-1,2.2857489E-1,-2.3169631E-2,-1.668157E-1,-3.457667E-2],"categories":[],"categories_nodes":[],"categories_segments":[],"categories_sizes":[],"default_left":[0,0,0,0,0,0,0,0,0,0,0,0,0,0,0,0,0,0,0,0,0,0,0,0,0,0,0,0,0,0,0,0,0,0,0,0,0,0,0,0,0,0,0,0,0,0,0,0,0,0,0,0,0,0,0,0,0,0,0,0,0,0,0,0,0,0,0,0,0,0,0],"id":15,"left_children":[1,3,-1,5,7,9,11,13,15,17,19,21,-1,23,25,27,29,31,33,35,37,-1,39,41,-1,43,45,-1,-1,-1,47,-1,-1,-1,49,-1,51,-1,53,-1,-1,-1,-1,-1,-1,-1,-1,55,57,-1,59,61,63,-1,-1,-1,65,67,69,-1,-1,-1,-1,-1,-1,-1,-1,-1,-1,-1,-1],"loss_changes":[4.4339128E0,4.2558722E0,0E0,3.5405421E0,1.2265778E0,2.7162592E0,7.292247E-1,1.0650826E0,1.2527788E0,8.809881E-1,1.8592575E0,4.5392668E-1,0E0,1.5760725E0,7.23897E-1,1.3597274E-1,7.3019236E-1,1.3553706E-1,1.2373681E0,1.4685599E0,1.4610853E0,0E0,2.2684649E-1,1.7318714E-1,0E0,3.047223E-1,6.45996E-1,0E0,0E0,0E0,9.325986E-1,0E0,0E0,0E0,1.5202444E0,0E0,1.6401988E0,0E0,1.9087458E-1,0E0,0E0,0E0,0E0,0E0,0E0,0E0,0E0,1.6455872E0,1.5669262E0,0E0,6.6905206E-1,3.5330772E-2,2.2191641E0,0E0,0E0,0E0,2.4476962E0,9.5623124E-1,6.756401E-2,0E0,0E0,0E0,0E0,0E0,0E0,0E0,0E0,0E0,0E0,0E0,0E0],"parents":[2147483647,0,0,1,1,3,3,4,4,5,5,6,6,7,7,8,8,9,9,10,10,11,11,13,13,14,14,15,15,16,16,17,17,18,18,19,19,20,20,22,22,23,23,25,25,26,26,30,30,34,34,36,36,38,38,47,47,48,48,50,50,51,51,52,52,56,56,57,57,58,58],"right_children":[2,4,-1,6,8,10,12,14,16,18,20,22,-1,24,26,28,30,32,34,36,38,-1,40,42,-1,44,46,-1,-1,-1,48,-1,-1,-1,50,-1,52,-1,54,-1,-1,-1,-1,-1,-1,-1,-1,56,58,-1,60,62,64,-1,-1,-1,66,68,70,-1,-1,-1,-1,-1,-1,-1,-1,-1,-1,-1,-1],"split_conditions":[1E0,1E0,-2.9331413E-1,1E0,1E0,1E0,1E0,1E0,1E0,1E0,1E0,1E0,-2.5783482E-1,1E0,1E0,1E0,1E0,1E0,1E0,1E0,1E0,-1.6399218E-1,1E0,1E0,-2.048128E-1,1E0,1E0,1.7975454E-1,4.2628564E-2,1.1864198E-1,1E0,1.8345604E-2,-9.7814746E-2,2.6668853E-1,1E0,2.05079E-1,1E0,7.372207E-2,1E0,8.96449E-2,-4.9690705E-2,1.2574206E-2,1.7292276E-1,8.138971E-2,2.6812336E-1,-4.295087E-2,1.3329719E-1,1E0,1E0,2.1780671E-1,1E0,1E0,1E0,-6.0779385E-2,-2.60321E-1,9.283298E-2,1E0,1E0,1E0,4.8985623E-2,-1.3019748E-1,-6.793747E-2,-2.247666E-1,1.6852865E-2,-2.2890471E-1,9.3362726E-2,-3.3163482E-1,2.2857489E-1,-2.3169631E-2,-1.668157E-1,-3.457667E-2],"split_indices":[66,0,0,32,14,23,7,22,22,77,45,33,0,41,15,31,3,42,27,76,29,0,81,34,0,12,11,0,0,0,9,0,0,0,29,0,33,0,35,0,0,0,0,0,0,0,0,27,4,0,22,8,53,0,0,0,33,45,46,0,0,0,0,0,0,0,0,0,0,0,0],"split_type":[0,0,0,0,0,0,0,0,0,0,0,0,0,0,0,0,0,0,0,0,0,0,0,0,0,0,0,0,0,0,0,0,0,0,0,0,0,0,0,0,0,0,0,0,0,0,0,0,0,0,0,0,0,0,0,0,0,0,0,0,0,0,0,0,0,0,0,0,0,0,0],"sum_hessian":[1.1492766E2,1.11415855E2,3.5118072E0,7.219293E1,3.9222916E1,6.3116177E1,9.076758E0,1.954119E1,1.9681728E1,1.39220915E1,4.9194084E1,3.38234E0,5.694419E0,3.455978E0,1.608521E1,5.002374E0,1.4679354E1,2.1973321E0,1.1724759E1,4.223522E1,6.9588623E0,1.0921676E0,2.2901723E0,2.2683272E0,1.1876507E0,8.1024475E0,7.9827633E0,3.3196323E0,1.6827418E0,2.1085706E0,1.2570784E1,1.1399822E0,1.05735E0,3.4469628E0,8.277797E0,1.5904847E0,4.0644737E1,1.278064E0,5.680798E0,1.0374167E0,1.2527556E0,1.0701008E0,1.1982266E0,2.1838903E0,5.918557E0,2.0081437E0,5.9746194E0,5.8013296E0,6.769454E0,2.4601648E0,5.8176317E0,3.7470243E0,3.6897713E1,1.2741069E0,4.4066916E0,1.6732136E0,4.128116E0,4.3490143E0,2.42044E0,3.5691373E0,2.2484944E0,1.3670349E0,2.3799894E0,3.4247673E1,2.650041E0,1.2493627E0,2.8787532E0,2.3464227E0,2.0025914E0,1.2280314E0,1.1924087E0],"tree_param":{"num_deleted":"0","num_feature":"100","num_nodes":"71","size_leaf_vector":"1"}},{"base_weights":[-7.359096E-3,2.5683025E-2,-2.7228674E-1,5.925276E-2,-2.4458404E-1,1.4930208E-1,-2.1392773E-1,-2.4543731E-1,1.7654163E-1,9.4371065E-2,-4.3033344E-1,5.230998E-1,8.33725E-2,2.1369407E-1,-2.535752E-1,-1.7970365E-1,-2.7713394E-1,7.707428E-1,-1.5123433E-1,3.3809587E-1,-4.5877513E-2,3.3056334E-1,-7.707465E-2,-2.2734176E-1,1.031999E-1,-5.837431E-1,5.131982E-1,9.326586E-1,6.438772E-2,3.6533196E-2,-3.2072556E-1,-1.260132E-1,4.3928388E-1,-2.4161492E-1,1.6191685E-1,5.1261795E-1,-8.925854E-2,2.3298193E-2,-6.961315E-1,1.8549751E-1,3.9024796E-2,3.016461E-1,4.7944855E-2,8.579072E-2,-5.256053E-2,1.3146286E-2,-1.4878407E-1,1.54751E-1,-7.985586E-2,-1.20110475E-1,4.4368426E-3,1.8687268E-1,4.0601436E-3,-1.3998004E-2,2.2301E-1,-1.2291356E-1,8.853589E-2,-2.4702942E-1,-5.762045E-2],"categories":[],"categories_nodes":[],"categories_segments":[],"categories_sizes":[],"default_left":[0,0,0,0,0,0,0,0,0,0,0,0,0,0,0,0,0,0,0,0,0,0,0,0,0,0,0,0,0,0,0,0,0,0,0,0,0,0,0,0,0,0,0,0,0,0,0,0,0,0,0,0,0,0,0,0,0,0,0],"id":16,"left_children":[1,3,-1,5,-1,7,9,-1,11,13,15,17,19,21,23,25,-1,27,29,31,33,35,-1,-1,-1,37,39,41,43,-1,45,-1,47,49,51,53,55,-1,57,-1,-1,-1,-1,-1,-1,-1,-1,-1,-1,-1,-1,-1,-1,-1,-1,-1,-1,-1,-1],"loss_changes":[3.225736E0,3.0074117E0,0E0,2.5343857E0,0E0,2.1760929E0,1.7506083E0,0E0,2.4040973E0,5.2711767E-1,1.7186861E0,2.7671642E0,2.0216737E0,5.8128995E-1,1.2749584E0,3.476495E0,0E0,1.2864432E0,2.7501744E-1,1.7672133E0,1.7190874E0,6.317326E-1,0E0,0E0,0E0,6.216669E-1,1.0934234E-1,3.7421036E-1,2.2368163E-1,0E0,2.4027446E-1,0E0,1.1466963E0,8.880135E-1,1.4029871E0,7.439666E-1,5.114707E-1,0E0,2.6709175E-1,0E0,0E0,0E0,0E0,0E0,0E0,0E0,0E0,0E0,0E0,0E0,0E0,0E0,0E0,0E0,0E0,0E0,0E0,0E0,0E0],"parents":[2147483647,0,0,1,1,3,3,5,5,6,6,8,8,9,9,10,10,11,11,12,12,13,13,14,14,15,15,17,17,18,18,19,19,20,20,21,21,25,25,26,26,27,27,28,28,30,30,32,32,33,33,34,34,35,35,36,36,38,38],"right_children":[2,4,-1,6,-1,8,10,-1,12,14,16,18,20,22,24,26,-1,28,30,32,34,36,-1,-1,-1,38,40,42,44,-1,46,-1,48,50,52,54,56,-1,58,-1,-1,-1,-1,-1,-1,-1,-1,-1,-1,-1,-1,-1,-1,-1,-1,-1,-1,-1,-1],"split_conditions":[1E0,1E0,-2.7228674E-1,1E0,-2.4458404E-1,1E0,1E0,-2.4543731E-1,1E0,1E0,1E0,1E0,1E0,1E0,1E0,1E0,-2.7713394E-1,1E0,1E0,1E0,1E0,1E0,-7.707465E-2,-2.2734176E-1,1.031999E-1,1E0,1E0,1E0,1E0,3.6533196E-2,1E0,-1.260132E-1,1E0,1E0,1E0,1E0,1E0,2.3298193E-2,1E0,1.8549751E-1,3.9024796E-2,3.016461E-1,4.7944855E-2,8.579072E-2,-5.256053E-2,1.3146286E-2,-1.4878407E-1,1.54751E-1,-7.985586E-2,-1.20110475E-1,4.4368426E-3,1.8687268E-1,4.0601436E-3,-1.3998004E-2,2.2301E-1,-1.2291356E-1,8.853589E-2,-2.4702942E-1,-5.762045E-2],"split_indices":[66,94,0,38,0,88,7,0,39,97,41,61,22,69,4,0,0,25,7,18,0,46,0,0,0,83,45,41,17,0,24,0,43,1,27,35,84,0,74,0,0,0,0,0,0,0,0,0,0,0,0,0,0,0,0,0,0,0,0],"split_type":[0,0,0,0,0,0,0,0,0,0,0,0,0,0,0,0,0,0,0,0,0,0,0,0,0,0,0,0,0,0,0,0,0,0,0,0,0,0,0,0,0,0,0,0,0,0,0,0,0,0,0,0,0,0,0,0,0,0,0],"sum_hessian":[1.0665682E2,1.03817894E2,2.8389285E0,1.00726616E2,3.0912836E0,7.6096245E1,2.4630371E1,1.2888165E0,7.480743E1,1.0390967E1,1.4239404E1,1.4872427E1,5.9934998E1,8.024817E0,2.3661504E0,1.03477745E1,3.8916297E0,1.0773127E1,4.0993004E0,1.9630928E1,4.030407E1,6.666797E0,1.3580205E0,1.1378787E0,1.2282716E0,6.6358614E0,3.7119126E0,8.503508E0,2.2696187E0,1.6779764E0,2.421324E0,1.940538E0,1.769039E1,2.0670338E1,1.9633734E1,4.4960575E0,2.1707394E0,1.0086968E0,5.627165E0,2.4309278E0,1.2809848E0,7.4960933E0,1.0074146E0,1.078553E0,1.1910658E0,1.0294573E0,1.3918666E0,1.6201155E1,1.4892343E0,1.241938E1,8.2509575E0,4.002112E0,1.5631621E1,1.5462115E0,2.949846E0,1.1478646E0,1.022875E0,3.9867375E0,1.6404271E0],"tree_param":{"num_deleted":"0","num_feature":"100","num_nodes":"59","size_leaf_vector":"1"}},{"base_weights":[-1.4878952E-2,1.2978611E-2,-2.4792448E-1,-9.822923E-2,2.1681696E-1,-2.8057327E-2,-5.9371746E-1,8.7350376E-2,4.3405184E-1,-4.9520653E-1,2.5476322E-2,-1.8873876E-1,-2.4085948E-1,1.8903533E-1,1.8372687E-2,5.797853E-1,2.7351007E-2,-8.351243E-2,-2.3592114E-1,7.44146E-2,-2.1831961E-1,3.4500625E-2,-1.0600775E-1,-1.9854428E-1,1.8450852E-1,6.388842E-1,1.808935E-2,1.737746E-1,-2.2681125E-1,-8.546832E-2,4.0612333E-2,1.1367604E-1,-1.9581908E-1,2.6304933E-1,-4.50076E-1,4.144531E-1,-5.5126667E-2,7.5603224E-2,2.2012095E-1,4.425914E-1,3.2618333E-2,1.5482149E-1,-5.9481416E-2,-1.2143611E-2,-8.1635445E-1,1.631973E-1,3.8924925E-2,-1.2773424E-1,3.0207184E-1,1.9709486E-1,-1.6938227E-1,1.1035307E-1,-2.5998788E-2,1.5740298E-1,-1.0817886E-1,-3.3430925E-1,-6.410059E-2,1.2305549E-1,3.1186368E-3],"categories":[],"categories_nodes":[],"categories_segments":[],"categories_sizes":[],"default_left":[0,0,0,0,0,0,0,0,0,0,0,0,0,0,0,0,0,0,0,0,0,0,0,0,0,0,0,0,0,0,0,0,0,0,0,0,0,0,0,0,0,0,0,0,0,0,0,0,0,0,0,0,0,0,0,0,0,0,0],"id":17,"left_children":[1,3,-1,5,7,9,11,13,15,17,19,21,-1,-1,23,25,27,29,-1,31,-1,-1,-1,33,35,37,-1,-1,-1,-1,-1,39,-1,41,43,45,47,-1,-1,49,51,-1,-1,53,55,-1,-1,-1,57,-1,-1,-1,-1,-1,-1,-1,-1,-1,-1],"loss_changes":[2.2909288E0,2.2540932E0,0E0,2.2230978E0,9.487132E-1,1.449986E0,5.211232E-1,8.582234E-1,7.4563956E-1,6.486285E-1,1.9899929E0,2.4124114E-1,0E0,0E0,8.165965E-1,2.5034738E-1,2.3570628E0,1.9669238E-1,0E0,1.5079417E0,0E0,0E0,0E0,1.2641876E0,7.2675395E-1,1.2127423E-1,0E0,0E0,0E0,0E0,0E0,1.2786226E0,0E0,5.8228725E-1,1.0738845E0,1.741674E-1,1.0736672E0,0E0,0E0,2.4243822E0,1.6309272E0,0E0,0E0,9.547078E-1,4.2001128E-1,0E0,0E0,0E0,1.2880847E-1,0E0,0E0,0E0,0E0,0E0,0E0,0E0,0E0,0E0,0E0],"parents":[2147483647,0,0,1,1,3,3,4,4,5,5,6,6,7,7,8,8,9,9,10,10,11,11,14,14,15,15,16,16,17,17,19,19,23,23,24,24,25,25,31,31,33,33,34,34,35,35,36,36,39,39,40,40,43,43,44,44,48,48],"right_children":[2,4,-1,6,8,10,12,14,16,18,20,22,-1,-1,24,26,28,30,-1,32,-1,-1,-1,34,36,38,-1,-1,-1,-1,-1,40,-1,42,44,46,48,-1,-1,50,52,-1,-1,54,56,-1,-1,-1,58,-1,-1,-1,-1,-1,-1,-1,-1,-1,-1],"split_conditions":[1E0,1E0,-2.4792448E-1,1E0,1E0,1E0,1E0,1E0,1E0,1E0,1E0,1E0,-2.4085948E-1,1.8903533E-1,1E0,1E0,1E0,1E0,-2.3592114E-1,1E0,-2.1831961E-1,3.4500625E-2,-1.0600775E-1,1E0,1E0,1E0,1.808935E-2,1.737746E-1,-2.2681125E-1,-8.546832E-2,4.0612333E-2,1E0,-1.9581908E-1,1E0,1E0,1E0,1E0,7.5603224E-2,2.2012095E-1,1E0,1E0,1.5482149E-1,-5.9481416E-2,1E0,1E0,1.631973E-1,3.8924925E-2,-1.2773424E-1,1E0,1.9709486E-1,-1.6938227E-1,1.1035307E-1,-2.5998788E-2,1.5740298E-1,-1.0817886E-1,-3.3430925E-1,-6.410059E-2,1.2305549E-1,3.1186368E-3],"split_indices":[66,0,0,32,63,77,7,7,38,8,53,46,0,0,11,82,41,54,0,91,0,0,0,18,14,35,0,0,0,0,0,70,0,51,17,4,9,0,0,15,7,0,0,33,14,0,0,0,8,0,0,0,0,0,0,0,0,0,0],"split_type":[0,0,0,0,0,0,0,0,0,0,0,0,0,0,0,0,0,0,0,0,0,0,0,0,0,0,0,0,0,0,0,0,0,0,0,0,0,0,0,0,0,0,0,0,0,0,0,0,0,0,0,0,0,0,0,0,0,0,0],"sum_hessian":[9.9860855E1,9.7498055E1,2.3628044E0,6.341753E1,3.408052E1,5.6475937E1,6.9415946E0,2.2232567E1,1.1847955E1,4.958277E0,5.151766E1,3.0119271E0,3.9296675E0,1.5895692E0,2.0642998E1,8.409125E0,3.4388297E0,2.587237E0,2.3710406E0,4.9220833E1,2.2968268E0,1.1645774E0,1.8473498E0,8.868577E0,1.1774421E1,7.3438272E0,1.0652981E0,2.1703808E0,1.268449E0,1.1904395E0,1.3967974E0,4.7499798E1,1.7210345E0,3.1119506E0,5.756626E0,5.6364174E0,6.1380033E0,2.1660497E0,5.177778E0,8.509561E0,3.899024E1,1.933044E0,1.1789067E0,3.0924103E0,2.6642158E0,3.2479126E0,2.3885047E0,2.9180403E0,3.2199628E0,7.3028054E0,1.2067553E0,9.685743E0,2.9304493E1,1.018143E0,2.0742674E0,1.2146243E0,1.4495915E0,2.0527766E0,1.1671863E0],"tree_param":{"num_deleted":"0","num_feature":"100","num_nodes":"59","size_leaf_vector":"1"}},{"base_weights":[-1.8298164E-2,5.353579E-2,-2.5504988E-1,1.0763299E-1,-2.6589224E-1,-4.6028167E-1,-4.0801622E-2,1.4859144E-1,-3.111424E-1,9.707292E-3,-5.124093E-1,9.219472E-2,-6.279512E-1,1.433991E-1,-4.696555E-1,3.6003345E-1,5.2992173E-2,